1672 200
Compound::DB01069 -0.047618475 -0.5376317 -0.29024458 0.21006526 0.068634935 -0.0860497 -0.24641614 0.09445879 0.1443761 -0.07613442 -0.2758955 -0.1063467 0.42841232 -0.094777286 -0.11321735 -0.41778997 0.37722084 0.1843164 -0.26767173 -0.21222518 -0.1834736 -0.13795689 -0.10782641 0.64851964 0.02104881 -0.019670486 0.02241796 -0.13433392 0.41559795 -0.030431436 0.24000135 -0.06344905 -0.25267124 -0.11345341 0.17673708 0.6125819 -0.21729818 -0.08502149 -0.6953344 0.30765927 0.50499713 0.19828178 0.17295687 -0.12453271 0.33024555 -0.20819041 -0.12812822 -0.16740589 0.14393331 0.09300053 0.047509056 -0.038747977 -0.23125692 0.06281923 0.1751414 -0.020884162 -0.048698567 0.058407214 0.036061805 0.015043014 -0.096906394 0.15587597 0.27517736 0.26316306 -0.20876601 0.008023341 -0.37299454 -0.40004578 -0.5281454 0.015653547 -0.039840892 0.41012767 0.10955461 -0.21745808 0.33917138 0.10683964 0.23456442 -0.12872306 0.0059499554 -0.11150577 -0.28253022 -0.5514992 -0.019151287 -0.497282 0.2102645 0.23910153 0.16887492 0.22402567 -0.12831552 -0.19751991 -0.66530746 0.2700857 -0.18365873 0.3142945 -0.4312472 0.10091152 -0.09556845 -0.37187532 0.062123902 -0.034431543 0.15531795 -0.65814173 -0.3631137 0.19123873 0.12661338 -0.06469645 -0.7085237 0.057649776 -0.31650263 -0.2083512 -0.08145233 -0.035020076 -0.10378475 -0.11403376 -0.14015397 -0.53609234 -0.036866345 -0.11677401 0.1148321 -0.21687068 -0.4915288 0.39149964 -0.26698887 -0.12966862 0.12351011 -0.11221483 0.2287267 -0.07045234 0.0884135 0.10734637 -0.13491957 -0.2698982 0.17667022 -0.98475707 -0.033938453 -0.0846008 -0.067865275 0.24591511 0.17161575 0.1824967 0.16845012 -0.1717191 0.23526646 0.24651454 0.23070422 -0.2873856 -0.091912456 -0.34429654 -0.59252954 -0.35359088 0.121114634 -0.08162981 0.1612841 0.14419171 0.2021436 -0.16450055 0.34827608 -0.4099518 0.22318035 0.5640671 0.3830199 0.41035393 0.29402515 0.01647666 -0.077681445 0.15491818 -0.14464 0.28884956 0.59236115 0.11986409 0.053244717 -0.18061869 -0.4561453 -0.056099646 0.034567848 -0.5504665 0.078984976 -0.024505146 -0.5313478 -0.5773365 -0.03884343 -0.056350354 -0.33095598 -0.012791726 0.31558812 0.019360077 -0.34961134 0.23391007 0.0044993022 0.9344104 -0.38611236 -0.58127666 0.2660707 -0.6693651 0.09628677 0.1749067 0.040375154 0.24765928 0.45769602 -0.3265567
Compound::DB00777 -0.2165724 -0.32841235 -0.20745976 0.14912918 0.02541899 -0.14614753 -0.28262085 -0.042936128 0.19742832 -0.15349337 -0.13624996 -0.0062475917 0.37265092 0.23644187 -0.06085469 -0.18552189 0.31635723 0.07086898 -0.59310293 0.18058138 -0.17213672 -0.30611017 -0.081545815 0.30158842 0.3625952 0.20063585 0.07651633 -0.015130549 0.34251115 -0.27744555 0.38910797 0.032485817 0.04973005 0.08326045 -0.15838249 0.4133699 -0.24054298 -0.25697932 -0.6915855 0.35411158 0.27611464 -0.06992794 0.27599135 -0.3191729 0.24907215 -0.37939137 -0.30678073 -0.048312824 0.117491245 -0.15544575 0.1411288 -0.09033283 -0.32778907 0.19941539 -0.0757921 0.004335942 0.011846338 0.3903473 -0.20192349 0.12696016 0.13682872 0.0288811 0.19418424 0.16497922 -0.3638146 -0.016036123 -0.4006948 -0.48827922 -0.3755323 -0.0965716 -0.120809585 0.42564538 0.122290045 -0.30194452 0.41897753 0.120363995 0.29605132 -0.08831479 -0.05598554 -0.020735445 -0.24882907 -0.38284045 0.11673486 -0.36806297 0.138964 0.23241885 0.3536658 0.3301993 -0.2883197 -0.15537165 -0.6564755 0.32416543 -0.15629123 0.25996852 -0.3518084 -0.13732518 -0.13760823 -0.25578347 0.19919936 0.021167764 0.24196143 -0.7926887 -0.35896152 0.20556884 0.32151824 0.007351844 -0.6628531 0.016961565 -0.21123885 -0.27290338 -0.41229883 -0.30208027 -0.304459 -0.05730032 -0.031157019 -0.5309954 0.02897357 -0.14050984 -0.18461767 -0.05556767 -0.40914956 0.47094133 -0.1420104 -0.10930879 0.08545742 -0.076292485 0.35507646 -0.067983165 -0.11394651 -0.054891106 -0.27129522 -0.542875 -0.024092002 -0.95709324 -0.28543887 0.017205399 -0.41985542 0.17623231 0.02584963 0.30379215 0.033613104 -0.05447595 0.25775552 0.11302312 0.18869065 -0.5213517 -0.17248675 -0.45149317 -0.51439023 -0.27734455 0.19382463 -0.0030518195 0.12922478 -0.01514424 0.34380046 -0.11835758 0.47635287 -0.31010613 0.24158423 0.5267805 0.5065434 0.3702676 0.45969677 0.028725388 0.03063902 0.1878839 -0.25140887 0.38635394 0.732052 0.044995908 -0.055548664 -0.355183 -0.5287586 -0.20234197 0.015249556 -0.5883835 0.031421937 0.01424586 -0.4993644 -0.80298823 -0.06936366 -0.07753593 -0.45760998 -0.22859342 0.31765023 0.4257959 -0.37561136 0.22740784 -0.29344252 0.91005385 -0.5435044 -0.56090564 0.1243474 -0.764128 0.041802328 0.40727648 -0.11295871 0.13742924 0.4943993 -0.2019956
Compound::DB01103 -0.10341205 0.005161094 0.054714143 0.24391018 -0.29322407 -0.5583086 -0.30350107 0.15751012 -0.22239894 0.1585802 0.27608058 -0.05941384 0.37558255 -0.07446174 0.2963257 0.043396186 -0.3904346 0.29876247 0.17076638 -0.19489439 0.03169323 0.31652427 -0.6730299 0.453298 0.011575264 -0.08169025 0.31471223 -0.1884099 -0.10105165 -0.14304845 -0.18315734 0.18639195 0.111618735 -0.5550245 0.1683992 0.13563633 -0.0029601506 0.47271174 -0.23085594 0.042444006 0.08264598 0.4452116 -0.38539582 0.07222467 0.34206066 0.006156911 -0.215412 0.092049055 0.36405686 -0.03461502 0.0023376474 0.40953708 -0.11561175 0.07955456 0.11724267 -0.14479448 0.05117467 0.37283283 -0.4715973 -0.008070489 0.26247054 -0.04802201 0.24173251 -0.27693176 0.17222132 -0.37429953 -0.01278508 -0.6146484 -0.23050384 0.42041022 0.019909779 0.2388591 0.05002854 -0.24015939 -0.03978009 -0.036672913 0.128561 0.26877668 -0.25944734 -0.22731256 0.21669757 0.031326234 -0.175736 0.037537176 -0.33502132 0.35967824 -0.19510412 0.10801184 0.0004142083 -0.045101803 -0.10881089 0.3828788 0.02920401 0.023812393 0.09650146 0.18658464 0.015531822 0.109198906 0.0072772345 -0.5778937 0.09034364 -0.24541417 -0.067739 0.042400863 -0.32217652 -0.035447806 0.011509494 -0.034378845 0.12356432 0.31656784 -0.16260232 -0.16105935 0.0006741506 0.002626886 -0.00961308 -0.13536406 -0.14431317 0.018784953 -0.24638954 -0.034455977 -0.383045 -0.04139206 -0.07493932 -0.25196642 -0.2429664 -0.060439274 0.19995226 0.39818832 0.15745689 -0.30512998 0.06276575 0.114802435 0.060802884 -0.44181618 0.12663557 0.4307956 0.1796114 0.3807576 0.091674164 0.00801045 0.30084845 -0.10953403 -0.19981147 0.2656743 0.117647186 -0.019211847 -0.15514421 -0.16468415 -0.113708176 -0.019982623 -0.11623683 -0.2814025 0.4968918 -0.18831651 -0.04708267 -0.32213733 0.37508827 0.11090363 -0.16151993 -0.032860823 0.3889502 0.23018153 0.67601824 0.17919312 -0.30253306 0.20286025 -0.2915608 -0.018570386 0.29438022 0.014199243 -0.13491026 -0.341485 0.08218654 -0.25868347 0.35519233 -0.01767979 0.31935644 0.20415294 -0.028999414 -0.058727052 -0.22958715 -0.0138803795 0.23854958 0.18507193 0.1386359 0.070420116 0.020864133 0.003997081 -0.06316316 0.40691766 0.20506966 -0.18254495 -0.093391754 -0.24027847 -0.17461015 -0.24618563 -0.35751402 0.26511788 -0.13868327 -0.3183971
Compound::DB00613 -0.09244642 -0.043732446 0.03288382 0.036811613 -0.18020272 -0.50460166 -0.17677543 -0.014693714 -0.025736416 0.24852225 0.023001445 -0.12482606 0.42868 -0.0008812743 0.19158623 0.017575784 -0.035927624 0.19369875 0.0043803593 -0.22752872 0.07545342 0.3477968 -0.50011146 0.2733956 0.12787957 -0.13509513 0.27114382 -0.095675424 -0.1961436 -0.02651466 -0.210831 -0.045377996 0.053946096 -0.5604294 0.12723218 0.2975228 0.10798569 0.31299043 -0.0034358571 0.017356964 0.405439 0.3172862 -0.20527434 0.23922057 0.22541958 0.18706751 -0.2626662 0.06159875 0.2304348 0.20662768 -0.071762525 0.38289973 -0.05605069 0.13064742 -0.013409045 -0.14225094 -0.095333345 0.33085683 0.12082847 0.06716525 0.11127194 0.016645769 0.26988208 -0.13962358 0.19272995 -0.36908296 0.0039229686 -0.6049609 -0.64602226 0.52590895 0.06526342 0.27920768 0.117710255 -0.26065105 0.090383016 0.1582122 0.33289075 0.11478574 -0.2850474 -0.18703732 -0.013672124 -0.1760853 -0.20522861 -0.23170654 -0.030086674 0.31348976 0.0821107 0.007060595 -0.3722878 -0.25022107 -0.14403723 0.5167805 -0.020619813 0.14097884 -0.15066375 0.32976428 -0.031741526 0.12794945 -0.039674163 -0.44156677 0.23083553 -0.37182528 0.011305102 0.16882958 -0.26916948 -0.0764285 -0.038101364 0.107502796 -0.12251382 0.033740472 -0.20096564 -0.12043758 -0.031141218 -0.07769451 0.030168748 -0.23853807 -0.11340748 -0.08558356 -0.20713207 -0.13101569 -0.50192004 -0.21682982 -0.061071344 -0.24681471 -0.06389237 0.018858815 0.15473205 0.1000423 -0.009138451 0.12745477 -0.15296175 -0.023535809 0.112195745 -0.36470187 0.10545704 0.39687312 0.48386663 0.5637593 0.18153413 0.24205768 0.27362344 0.06128209 -0.020166026 0.2508607 0.3476809 -0.27094665 -0.21372594 -0.14461008 -0.31688055 -0.18262757 -0.09346424 -0.04986879 0.3110176 -0.029410874 0.0064552953 -0.1735876 0.3576531 0.04474211 -0.17106086 0.22449853 0.4569724 0.23354506 0.5618787 0.21219645 -0.08287297 0.016436337 -0.2738453 0.035497308 0.38143605 0.04109681 -0.08638371 -0.2099346 -0.033198453 -0.20267448 0.22302459 -0.11031023 0.2636828 0.29917097 -0.264901 -0.25738227 -0.19228941 0.004559594 0.045811098 0.12873736 0.08148254 0.1466648 -0.14414176 0.0048288964 0.17141637 0.58876723 -0.043400865 -0.38089672 0.16769783 -0.24491881 -0.31149134 -0.23758103 -0.27201924 0.27460822 -0.056656435 -0.3063509
Compound::DB01231 -0.20659003 -0.16838737 -0.03206752 0.28286138 -0.04583339 -0.44763672 -0.21258505 0.10282847 0.3202732 -0.26172775 0.05547971 0.05133507 0.2667316 -0.27018985 -0.10927309 -0.25362855 0.18957014 0.100305036 -0.4481689 -0.37232175 -0.17926788 -0.08896683 -0.059286512 0.3976867 0.034024093 -0.02455362 -0.17709091 -0.17094624 0.4503287 -0.2674477 0.44718447 0.05799731 0.18661371 -0.055744834 0.25397924 0.43152922 -0.40381217 0.26056215 -0.71411985 0.45974496 0.68816966 0.35596186 0.2174948 -0.25445366 0.26402268 -0.3543581 0.04610231 -0.16050625 0.35506973 0.17787273 0.036205214 -0.030655582 -0.110097505 0.14437118 0.014134215 -0.17910479 -0.1517727 0.24883103 -0.143407 -0.014549732 0.01799914 0.28263226 0.38777196 0.120310314 -0.35970607 -0.104892716 -0.13736698 -0.7749615 -0.39293242 -0.025840877 -0.059150003 0.32111713 -0.005276534 -0.09364401 0.3176808 0.3004402 -0.029605458 -0.37050563 -0.15399599 -0.27335685 -0.3461099 -0.8181487 -0.45545083 -0.30384853 -0.010299923 0.21019188 0.124639176 0.5244122 -0.1126477 -0.08329884 -0.79761523 0.2633295 -0.13250345 0.47352737 -0.16980135 0.14443095 0.12725168 -0.09464953 0.18121362 -0.21502557 0.056902114 -0.477893 -0.60492456 0.3788501 0.08426191 0.23560713 -0.70101595 -0.25499278 -0.35648787 -0.41071132 -0.3906636 -0.05205957 0.10166089 -0.018557904 -0.109017566 -0.49328917 -0.14062735 0.017170014 0.06756781 -0.36645362 -0.35337317 0.47450635 -0.0424938 0.12500922 0.21733144 0.11000236 0.42626938 -0.08458014 -0.2978785 -0.0023497483 -0.37896612 -0.3132833 0.005704235 -1.0046253 -0.07264197 0.05224023 -0.36708426 0.29496545 0.11661834 0.2188714 0.11601481 -0.38294196 0.3523208 0.33872208 0.1356296 -0.3839369 -0.2106236 -0.47373632 -0.65539604 -0.14910758 0.15031616 -0.2932594 0.34017184 -0.16907687 0.3900028 -0.4737436 0.3776095 -0.5304799 0.2874212 0.7458712 0.660085 0.38263944 0.52684355 -0.0463378 -0.1110304 0.23894094 -0.38246146 -0.10451223 0.72810525 -0.11103709 -0.09567803 -0.18100329 -0.5416823 -0.2563502 0.24116987 -0.6292947 -0.35583028 -0.3015388 -0.6384863 -0.44988108 -0.07924426 -0.23845871 -0.45116243 -0.45313844 0.36517903 0.5674925 -0.17256786 0.071959496 -0.12555423 0.96599317 -0.33714047 -0.2648052 -5.199809e-05 -0.47560945 0.13029702 0.361235 0.07566606 0.29212892 0.5156161 -0.41981333
Compound::DB00209 0.010211664 -0.3013375 -0.09270908 0.28685272 0.09291581 -0.15394111 -0.068709984 0.061733663 0.035461098 -0.030450094 -0.11061318 -0.15224731 0.5365149 -0.317404 -0.14907111 -0.36006042 0.22894467 0.3038525 0.009258094 -0.19012378 -0.18625781 -0.12455792 -0.14226094 0.7657441 -0.17329724 -0.1348125 -0.20075855 -0.06381538 0.41305807 0.09488564 -0.09101398 0.1496362 -0.2024909 -0.17978805 0.3882653 0.2791067 -0.36399052 -0.013564758 -0.66151804 0.2462121 0.60295844 0.37922868 0.012472845 0.20678198 0.3724618 -0.13414088 -0.10444529 -0.26077422 0.014470791 -0.05314683 0.014784705 0.1985089 -0.37743366 -0.2331983 0.21711299 -0.26665443 -0.020139186 -0.13747908 0.106611446 -0.006677127 -0.25754014 0.10809104 0.33156088 0.16552036 -0.16068017 0.053133335 -0.34366333 -0.35166135 -0.5129807 0.030622544 -0.1010773 0.3071397 -0.10566914 -0.19967899 0.26813215 0.016174454 0.14554039 -0.16004147 -0.060435794 -0.078069344 -0.32627687 -0.43694752 -0.0797169 -0.33028197 0.2280883 0.47186145 0.22293818 0.21100433 0.035669856 -0.2225443 -0.6752986 0.30669054 -0.27121177 0.45933118 -0.2351073 0.15652819 -0.027294885 -0.3154019 0.024886044 -0.051520795 0.19332986 -0.57527095 -0.2165002 0.28937447 0.11282335 -0.14732453 -0.4697833 -0.07846219 -0.13672589 -0.15274663 0.03287915 0.047174886 -0.060752366 -0.27863643 -0.10069545 -0.36571273 -0.13280177 0.07865044 0.25415996 -0.11610391 -0.3714455 0.39094582 -0.21401957 -0.00036677808 0.04206682 -0.05629331 0.093485326 -0.011346232 0.07195555 -0.007912756 0.045454204 -0.021923212 0.19605833 -0.738152 0.049875 -0.08062643 0.061518557 0.13191581 0.07114817 0.100410745 -0.05255585 -0.15355073 0.16022213 0.4004475 0.08680811 -0.2416865 -0.103865474 -0.16889454 -0.46362948 -0.25299314 0.1201157 0.0069377013 0.08668843 0.2667268 0.0033349642 -0.1914405 0.19282022 -0.41351348 0.00091944984 0.47525916 0.14904597 0.3285248 0.1394564 0.10757746 0.015353764 0.24541366 -0.17140071 0.2904631 0.5309498 0.020337226 -0.004532252 -0.19130242 -0.44852695 0.122245654 0.07717448 -0.4178128 0.12715389 0.13877086 -0.32110462 -0.4000355 0.030260555 -0.13601126 -0.18921536 -0.1310471 0.43784982 -0.098134145 -0.23705925 0.064080775 0.17024133 0.955323 -0.14645495 -0.5834005 0.053964164 -0.7084165 0.17627542 0.03533324 0.032651715 0.37372512 0.55263054 -0.28451812
Compound::DB01327 -0.27947697 -0.56797427 0.046332624 0.3081449 0.18403149 -0.2646103 -0.14297025 0.08638669 0.2809792 0.020950831 -0.07630108 -0.07822191 0.8149203 -0.4825731 -0.4431905 -0.5917358 0.3216793 0.20725372 -0.16459161 -0.32926753 -0.21875997 -0.16446203 -0.40593913 1.1453617 -0.19262676 -0.28788692 0.10507074 -0.045088187 0.504019 -0.13847668 -0.058994103 -0.02932323 -0.119942114 -0.78194135 0.32052898 0.28026915 -0.16105548 0.13130054 -0.67587864 0.45225942 0.34269613 0.27919516 0.07899215 0.16919875 0.28810066 -0.12392808 0.014893225 -0.20110832 0.22941686 0.2516394 -0.033831604 0.18548693 0.08354265 0.121114336 0.10274707 -0.1868972 -0.13949193 -0.08112243 0.105156764 0.0536456 -0.1857457 0.08331533 0.43153068 -0.02683852 0.038027022 -0.10061816 -0.27542493 -0.39253947 -0.45261902 0.28502896 0.26938957 0.51934886 0.17796512 -0.37591344 0.25963956 -0.015353706 0.34358212 -0.2560774 0.1704458 -0.20404296 -0.41160268 -0.56309056 -0.28742847 -0.55183935 0.2501783 0.23134518 0.0963349 0.27407435 -0.0809276 -0.18621369 -0.5627134 0.100512 -0.33839285 0.25979826 -0.25596875 0.22424576 -0.03620706 -0.24256249 0.067260996 -0.39808288 -0.02507583 -0.37306845 -0.24622513 0.19034551 -0.057113357 -0.13293143 -0.6069527 0.052080937 -0.12655535 0.0021617874 0.060789883 0.17989327 0.09465686 -0.12785217 -0.20211922 -0.2537509 -0.011393842 0.051563177 0.22742602 -0.36288467 -0.51611894 0.2120423 -0.055593528 0.02859153 0.08767213 -0.19032508 0.06280767 -0.029603718 -0.16998854 0.25140855 -0.27028093 -0.08458432 0.25762278 -0.8124422 0.13515563 -0.13902159 0.30322158 0.15174475 0.09270114 0.3258255 0.31339198 -0.15450983 0.14008392 0.2410575 0.11675417 0.0713313 -0.009585963 -0.122130126 -0.38887003 -0.36415285 0.3214359 -0.13498813 0.14333989 0.16393691 0.27635148 -0.13894685 0.20568089 -0.3574796 0.25021783 0.54654986 0.42534426 0.20571186 0.23335391 -0.07232606 -0.19506781 0.21422131 -0.17879502 0.08354314 0.26880214 -0.023526752 -0.08214056 -0.16754079 -0.290875 0.1021486 0.32372165 -0.4805833 0.17112963 0.009160052 -0.21686241 -0.051601037 0.16556598 -0.16416994 -0.18848953 -0.16094302 0.21521015 -0.25868037 0.05900462 0.24514632 0.13764577 0.77540284 -0.030847155 -0.25152752 0.2734921 -0.5728647 0.15383647 0.097834475 0.0068600033 0.3807168 0.113242194 -0.27558362
Compound::DB01112 -0.28478235 -0.39369014 -0.1047711 0.22627969 0.031831294 -0.12161302 0.033880986 0.087193996 -0.13300878 0.014240332 -0.034222595 0.11048131 0.82463574 -0.6220419 -0.345754 -0.6501724 0.2874497 0.48177007 -0.054441568 -0.49843097 -0.17965017 -0.004251347 -0.22305803 1.1629543 -0.24711181 -0.57669544 -0.08740167 -0.040575787 -0.020805907 0.09462554 0.013431639 0.0024278702 0.09018804 -0.5597497 0.24028529 0.11905348 -0.33560804 0.33763903 -0.5436779 0.18960212 0.29619074 0.51720124 -0.10966446 0.27494803 0.5559341 0.07153032 -0.13230261 -0.1182656 0.14914186 0.22605851 -0.31600404 0.14566651 -0.09860572 0.09797414 0.16618139 -0.34681672 -0.16934288 -0.07734284 0.083030455 0.07930611 -0.3329898 0.15928866 0.427574 -0.08876653 0.04097308 -0.021562124 -0.15583916 -0.57990223 -0.5351153 0.33430323 0.3826409 0.42723456 0.13730358 -0.5045417 0.36442477 0.18953426 0.4322959 -0.19534774 0.07464513 -0.22920246 -0.21258587 -0.7203431 -0.35305336 -0.62455964 0.38685766 0.42524698 -0.195199 0.29219618 -0.010545306 0.116708875 -0.6944835 0.045624793 -0.2899296 0.32204577 -0.118116245 0.32991305 -0.012695081 -0.15899396 0.1795399 -0.45279434 0.25205415 -0.406506 -0.13287525 0.065396905 -0.2674853 -0.15171257 -0.66741824 0.15030631 0.017848564 0.055457525 0.15058674 0.19505787 0.05637993 -0.08007184 -0.20273997 -0.14031407 -0.08199039 0.015427045 0.39721996 -0.056939553 -0.6301033 0.035580985 -0.048009444 0.061299574 0.04170044 -0.048538495 -0.016995504 0.009671841 -0.09138416 0.05572195 -0.24956353 0.108048484 0.24528714 -0.564277 0.072729275 0.13685301 0.25461465 0.33684766 0.2281598 0.565497 0.16337346 -0.10437179 0.0137432525 0.5518395 0.12862778 -0.14715219 0.013118868 -0.17957553 -0.35364652 -0.30346063 0.35560971 -0.026615066 0.37487957 0.21097526 0.11214472 -0.22572081 0.17865029 -0.23889033 -0.084407896 0.29006815 0.43539008 0.29008538 0.34639254 0.22773223 -0.19855388 0.185557 -0.6096358 0.20836739 0.37731212 0.10450747 -0.13474686 -0.032115076 -0.22127256 0.1153529 0.27963534 -0.32567123 0.10246251 0.10843755 -0.25855646 -0.017797967 0.036087822 -0.34647563 -0.07201799 -0.08415721 0.4990256 -0.18576172 0.013196557 0.05233255 0.10658773 0.88569283 0.009745765 -0.22177902 0.2748903 -0.53552806 -0.03255158 -0.115074426 -0.16309477 0.12727343 -0.057990965 -0.35535303
Compound::DB00257 -0.3447957 -0.3232023 0.07350456 0.21457759 0.08249353 -0.4753813 -0.13164984 0.3327695 0.102194875 0.08846542 -0.1571788 -0.1420946 0.7640749 0.19910409 0.16075186 -0.34091753 0.29589826 -0.12892237 -0.3474173 -0.15833928 0.14703082 -0.17603458 -0.7279929 0.9242566 -0.0704134 -0.3679382 0.29241002 -0.2145708 -0.018541323 -0.1504822 -0.25724846 -0.19470103 -0.1523975 -0.7860942 0.32817778 0.2677179 0.110577926 -0.033107817 -0.54403776 -0.0556627 0.6864902 0.0209387 -0.019772869 0.29146564 0.08331836 -0.13924152 -0.4340192 -0.11023244 0.060612746 -0.08660658 0.18150102 0.3821525 0.097261034 0.22868277 -0.39080563 -0.21147627 0.019262914 0.160973 0.21920207 -0.086990334 0.0027302038 0.22028734 0.19455355 0.05586321 -0.019427547 -0.11752644 -0.36240348 -0.23983715 -0.69358945 0.29630223 -0.0118508395 0.3050324 -0.08206472 -0.18026397 0.11126989 -0.061107174 0.0151269175 -0.1715132 -0.2434585 -0.41960898 -0.20991135 0.0352858 -0.15231398 -0.18083072 0.052338228 0.114785984 0.4281966 0.073364966 -0.14626022 -0.41187254 -0.25737777 0.4731649 -0.25183266 0.19123708 -0.15380912 0.36811125 -0.11897058 -0.01116547 0.12554127 -0.1799706 0.070395574 -0.27813956 -0.2693765 0.17460512 0.01956294 -0.23447971 -0.3382323 -0.11189759 -0.23584908 -0.26092646 -0.06965628 -0.026285596 0.12855102 0.021985255 -0.24112809 -0.53963053 -0.09674065 0.033680756 0.13313332 -0.41400144 -0.55383223 0.26498318 -0.12724136 -0.24228753 0.14345948 -0.23916735 0.21153902 0.1085768 -0.05601601 0.109777376 -0.039196514 -0.40250883 -0.012421734 -0.7662445 -0.17172171 0.38186896 0.25448948 0.23382321 0.062432133 -0.093128875 0.30299225 -0.109791614 0.16248426 0.47090653 0.25442284 -0.064552695 -0.16779783 -0.47900316 -0.44789252 0.042343605 0.013144324 -0.22655293 0.24345332 0.2731782 -0.12969422 -0.066645324 0.45411786 -0.14317912 0.36027795 0.77886593 0.574853 0.077838056 0.31691667 -0.24785084 -0.2820165 0.06458549 -0.16362752 -0.011510588 0.80365145 0.1645815 -0.070574865 -0.385772 0.020876814 -0.14980525 -0.08357231 -0.5140365 0.17267363 -0.004505122 -0.17225577 -0.45671389 0.058323465 -0.24164563 -0.2797803 0.0041459817 0.17119107 0.3618017 -0.07321119 0.2103472 -0.016844684 0.7491311 -0.11903488 -0.6960856 0.08844976 -0.5767958 -0.24773489 -0.21229725 0.0075502796 0.10897678 0.08191767 -0.18935402
Compound::DB04794 -0.53688675 -0.28544435 0.07292372 0.40222526 0.0052921027 -0.5460334 0.036673203 0.40310156 0.36297515 0.07881954 0.036704194 -0.025498921 0.7216629 0.10165549 0.1816469 -0.4365714 0.117040634 -0.29126847 0.08109552 -0.29585385 -0.20990172 0.06944433 -0.28831616 0.551082 0.046340544 -0.2762196 0.30511686 -0.05813907 -0.19999145 -0.24884465 -0.029422916 0.0383797 -0.282806 -0.41455528 0.09952146 0.3839321 -0.04524509 -0.035805736 -0.5574465 0.055122633 0.3454683 0.06739933 0.11754649 0.1149589 0.13708946 -0.23422615 -0.27038947 -0.10566874 0.086094305 -0.17466854 0.14643718 0.16193308 -0.1623432 0.11513763 -0.51085633 -0.21417938 0.17891642 0.35086992 0.17112458 -0.01527299 0.14957297 0.08451235 0.24433348 -0.16657089 0.08573483 -0.03965263 -0.0038130023 -0.11380583 -0.84461105 0.07129046 0.014115931 0.21823815 -0.14940487 -0.4248438 0.1653347 -0.007816921 -0.10273493 0.071550995 -0.41103566 -0.22621262 -0.19507764 -0.083116055 -0.16581945 -0.23856346 -0.102149166 -0.07479086 0.45499334 0.11669915 -0.3101678 -0.37358513 -0.5242568 0.36870497 -0.17486134 -0.015180829 -0.013585478 0.3408253 -0.09918772 -0.14612642 0.21183953 -0.11378015 0.07926597 -0.34178126 -0.40783012 0.28085476 0.02901575 -0.045683622 -0.52122724 -0.18785095 -0.18524516 -0.06228516 -0.2645771 -0.13806193 -0.008245033 -0.10896989 0.040672723 -0.5471674 -0.30024767 -0.15915623 0.008063238 -0.27531016 -0.5393263 0.38224125 -0.1608225 -0.09419398 0.24576615 0.07174422 0.28459612 -0.045850974 -0.09004359 -0.25278753 -0.13915744 -0.2561594 0.14273421 -0.6711658 -0.13408892 0.40059695 -0.20328805 0.13543051 0.01268358 -0.13270074 0.26583263 0.0052010003 0.23961802 0.43816414 0.07581152 -0.2776857 -0.22913109 -0.25857216 -0.7405784 0.21822377 -0.12750235 -0.22935334 0.12495736 0.114429936 -0.12405272 -0.3140017 0.39909053 -0.25567433 0.30938816 0.9395973 0.605444 0.1779668 0.46027264 -0.3525021 -0.22433108 0.13144742 0.009349632 -0.28885713 0.8180499 -0.063798785 0.13742407 -0.4982795 -0.39629623 -0.4421374 -0.14971302 -0.70182294 0.123664595 -0.08566926 -0.38277885 -0.5148847 0.07239627 -0.025465803 -0.35078144 -0.1644644 0.23870754 0.6950191 -0.23498474 0.22738901 -0.5336288 0.55958027 -0.31006703 -0.71692675 -0.33876434 -0.84523135 0.21375217 0.14549038 0.18159238 -0.18039007 -0.0538689 -0.110937804
Compound::DB00432 -0.4730823 -0.015110569 0.10436715 0.6108904 -0.12551278 -0.5376387 -0.2234331 0.4225325 0.17256056 0.2682627 0.2521065 -0.07567375 0.6129423 -0.08777552 -0.11104232 -0.07633989 -0.1894922 0.12062955 0.028377045 -0.24797721 -0.06700893 0.35515964 -0.19496714 0.4631822 -0.0013314192 -0.09873711 0.36003143 0.105591334 -0.1567407 -0.42029044 0.054425836 0.108445965 0.067754515 -0.46648118 0.22968522 0.21128127 -0.07928024 0.24421667 -0.56278694 0.13371746 0.45621908 0.08667743 -0.28036287 0.18758857 0.09964267 -0.20067093 -0.33628768 0.07178051 -0.09484915 0.029134788 -0.023366962 0.37902653 -0.20793182 -0.17730865 -0.011554586 -0.18375415 0.0856734 0.171189 -0.033272505 0.005231174 0.014813841 0.34006578 0.33100405 -0.045393202 -0.03174958 -0.17735116 -0.12941138 -0.6581431 -0.28436172 0.3166643 0.2431495 0.40820906 -0.19251548 -0.4312743 0.26764175 0.05461784 0.0324075 -0.09133247 -0.32053813 -0.24993427 -0.2688594 -0.09161299 -0.23601662 -0.42504358 0.004275117 0.2864586 0.07551025 0.024783572 -0.024909647 -0.22666684 -0.22857352 0.21957897 -0.20055166 0.20993808 0.086660236 0.42572883 0.15482908 -0.15492398 -0.06472879 -0.2948953 0.17070295 -0.29005218 0.010973637 0.14998178 -0.142121 -0.24930191 -0.14846227 0.18880524 0.029008988 -0.077481695 0.037153386 0.2017543 0.17719564 -0.019412855 0.056271303 0.004142157 -0.15457931 -0.09598139 0.1952801 -0.1897335 -0.27798203 0.064652376 -0.13532506 0.09737002 0.29296336 0.10089152 -0.22078967 0.12807712 0.02823109 -0.13022798 -0.07075728 0.15858157 -0.023473637 -0.3648308 -0.17246643 0.41594654 0.40786007 0.29730675 0.11134178 0.028900025 0.14699973 0.013866129 0.104575045 0.36074376 0.25619307 0.011944016 -0.10373413 -0.013135285 -0.15911967 -0.27516752 -0.10713075 -0.12297983 0.030626433 -0.2424141 -0.21992835 -0.30277058 0.26845923 -0.12961385 -0.14828077 0.40082714 0.6989837 0.3466261 0.15954691 0.26416945 -0.1842146 0.301386 -0.22711632 0.20696126 0.43489766 -0.102070786 -0.042105656 -0.3723123 -0.4998853 -0.0829748 0.36497626 -0.4267302 0.39062747 0.20576636 -0.3296825 -0.13748991 -0.26487568 -0.1957336 -0.16133447 -0.35820952 0.3252695 0.2376794 -0.20606248 0.067085974 -0.07137798 0.8171383 -0.07908422 -0.5000492 0.073645845 -0.38081104 -0.20291802 0.08420086 -0.20871623 -0.013027308 0.014582216 0.023029791
Compound::DB01262 -0.28485093 -0.1224629 0.059728775 0.39798874 0.07700163 -0.15985335 -0.1510527 0.40831327 0.08733008 0.12545587 -0.1364396 -0.14568955 0.85007834 -0.095457084 -0.23135367 -0.2203299 0.118891984 0.31545663 0.275606 -0.413084 -0.06259823 0.11672463 -0.18355283 0.8383928 -0.11197977 -0.2960859 0.09329982 -0.14319316 0.022532541 -0.048996102 -0.26122373 0.28692728 -0.03107734 -0.33462432 0.4108252 0.22571075 -0.24719766 0.14596272 -0.5791553 0.12853527 0.22941689 0.30571687 -0.21054353 0.2749403 0.23890139 0.12788324 -0.022891827 -0.04576647 -0.1194771 0.050887484 -0.14529994 0.19478808 -0.15596603 -0.24834614 0.13745464 -0.3855811 0.019293334 0.1003415 0.08529866 -0.018765975 -0.27522063 0.22710133 0.40703914 0.050454974 -0.007940195 -0.08372617 -0.102815054 -0.5023472 -0.48043394 0.20941286 0.28673235 0.24461228 -0.089587815 -0.33951676 0.1723299 0.08521817 0.10477381 -0.0331264 -0.1359962 -0.24395694 -0.10500922 -0.543623 -0.20820858 -0.3518035 0.27686197 0.42600432 -0.019621162 0.0040625045 0.06276761 -0.14233878 -0.46954197 0.15394068 -0.17445566 0.34278318 -0.04265399 0.53155243 -0.13737455 -0.28858778 -0.08622273 -0.120206654 0.3056571 -0.40266198 -0.02016006 0.1620969 -0.28206885 -0.26244444 -0.5267315 -0.022640528 -0.11157951 0.008529206 0.22628494 0.1693489 0.23159534 -0.22282618 0.23873334 -0.11928537 -0.27137458 -0.12401494 0.43874758 -0.16323864 -0.59610003 0.24117795 -0.14417514 -0.09500836 0.05845725 0.049322974 -0.12531924 -0.055797346 0.05139405 0.06915044 0.122966975 0.37018988 0.18857501 -0.2920253 0.088251226 0.24241965 0.2772401 0.36405447 0.15376371 0.12415494 -0.02254938 -0.085838735 0.056058235 0.5959004 0.09770967 -0.13705528 -0.11213176 -0.13597383 -0.5614127 -0.10505487 -0.040344264 0.017208166 -0.084221534 0.21499681 -0.21676154 -0.35553136 0.30086976 -0.22775152 -0.2442791 0.40410075 0.236134 0.38300815 0.23941562 0.4719141 -0.10302546 0.2910901 -0.34529302 0.22396319 0.23416825 0.103024535 -0.012615912 -0.18280168 -0.43365955 0.15310931 0.31615722 -0.42525324 0.18496713 0.28718963 -0.44937357 -0.18290746 -0.10123216 -0.2510267 -0.058967907 -0.06328882 0.3659031 -0.017475108 -0.3533182 -0.0700556 0.25796634 1.0298162 -0.00078985177 -0.6401961 0.0762439 -0.35111633 -0.06242293 0.06114374 -0.17793566 0.094199665 0.25369424 -0.17415026
Compound::DB01299 0.0900807 0.17150898 0.26416558 0.637968 0.0077968524 -0.41454017 -0.53993547 0.021114415 -0.12031694 0.03770327 -0.23035182 -0.17543343 0.50465554 -0.108654246 0.12210111 -0.24068494 0.021563387 0.13437316 -0.48687184 -0.19556692 0.18912435 0.05533974 -0.32283032 0.21645777 0.2634527 -0.11653214 -0.1747235 -0.16527079 0.13544168 -0.11631936 0.30952588 0.010440052 0.0981309 -0.39022496 0.14547981 0.25515065 -0.40264675 0.11760579 -0.4510469 0.22276396 0.32391465 0.33640096 -0.035218 0.3262782 0.29726782 -0.33923504 -0.188509 0.07370125 0.30530164 0.10007333 -0.19101587 0.39250246 -0.18691266 0.30701682 0.00077101093 -0.22835623 -0.31615582 0.285236 -0.42770275 0.31884447 0.4355727 0.09416145 0.31833875 -0.06668982 -0.25207403 -0.096353285 -0.08168742 -0.65707946 -0.35346702 -0.0049894787 0.23709995 0.2259239 0.12719299 -0.46065983 0.36023682 0.27960014 0.22335827 0.034961224 -0.16112417 -0.22482382 -0.015489916 -0.4628767 -0.23817517 -0.5376848 0.33384275 0.4879383 0.13161416 0.60199463 -0.40798068 0.20432633 -0.47866422 0.3952461 0.20643467 0.2278852 0.15230937 0.24762538 -0.043927893 0.015375212 0.49348637 -0.35140103 0.6263086 -0.3892846 -0.46360835 0.26319972 0.032250125 -0.017361568 -0.35683945 -0.1524838 0.009916819 -0.16402996 -0.37299734 -0.072960414 0.1945769 -0.12992518 -0.065116815 -0.26735017 0.051108398 -0.087456234 0.030787885 -0.08610172 -0.619068 0.10838732 0.100873284 0.07507882 -0.21690775 0.09665221 0.16292246 0.0015331369 -0.19959544 0.12620975 -0.46709722 -0.034977384 0.3191519 -0.49396914 -0.13075957 0.2802327 -0.14146371 0.32384008 0.011759202 0.33477727 0.42365232 -0.20241973 -0.063331194 0.110628985 0.19408694 -0.03147729 0.17158018 -0.36865598 -0.535104 0.004847514 0.3066429 -0.116116144 0.15983477 -0.15513834 0.33273762 -0.510281 0.39895558 -0.13324845 -0.16125712 0.5550512 0.4726889 0.3546718 0.47459984 0.14718582 -0.38844317 0.33939597 -0.44207633 -0.13287981 0.486405 -0.2746987 -0.022069598 -0.054315396 -0.2555329 -0.25217313 0.32030398 -0.38824105 -0.07873492 0.11846124 -0.25096974 -0.10412159 -0.051113673 -0.028544458 -0.048033997 -0.22878957 0.22860152 0.38304904 -0.098196685 0.10482473 -0.28338936 0.91787106 -0.31272504 -0.12162903 -0.088546395 -0.5407646 -0.013595986 0.41578007 -0.08102005 -0.031112086 0.10946011 -0.3970115
Compound::DB05245 0.258022 -0.48887125 -0.036876548 0.37489015 0.14896776 -0.039095525 -0.24867426 0.081267215 0.045896534 -0.41836888 -0.121498175 -0.088229544 0.48880792 -0.17727767 -0.1789008 -0.23686999 0.27878326 0.08170046 -0.2583422 -0.25633907 -0.25314805 0.118237786 -0.3177253 0.5322189 -0.024528574 -0.085909784 -0.0940382 -0.038075622 0.30113715 -0.08135104 0.35800228 -0.010048211 -0.15291542 -0.33740273 0.2713508 0.37531 -0.48723936 0.29275414 -0.50756484 0.5327473 0.3131955 0.4254802 0.05040016 0.28418848 0.32767752 -0.2826569 -0.069592796 -0.0059523755 0.34659836 0.16861169 0.089072265 0.061358456 -0.081581526 0.17340387 0.17283912 -0.22331691 -0.10840667 0.31265825 -0.24102855 0.12893096 0.052992977 0.1231999 0.6301797 0.04216863 -0.11632872 -0.20594625 -0.008237869 -0.31091857 -0.3555049 0.23223795 0.115041554 0.292633 0.15056589 -0.44087604 0.21140508 0.025784396 0.2284263 -0.08115208 -0.07971848 0.024295606 -0.43661407 -0.64842147 -0.024436077 -0.64235646 0.4459244 0.30184197 0.19962016 0.6585286 -0.16349815 -0.15640622 -0.70361924 0.2906979 -0.12526831 0.056255717 -0.098452665 0.19229405 -0.13315995 -0.21905072 0.18111476 -0.35350427 0.2163128 -0.44022766 -0.36567432 0.464745 0.16953626 -0.028461616 -0.5005247 -0.15030436 -0.017011588 -0.24242496 -0.37675756 -0.17668276 0.15260985 -0.062148314 0.028164964 -0.33189067 0.025482986 -0.1461063 0.0074647116 -0.14246613 -0.6317543 0.09776398 -0.24340816 0.07465285 -0.3661397 0.013963336 0.40522456 -0.012574203 -0.16030364 0.11630196 -0.23656526 -0.058028203 0.24578056 -0.55709964 0.016781723 0.11059786 -0.2611678 0.17243591 -0.107300155 0.3030165 0.3661649 -0.49463016 0.123428576 0.12982403 -0.12195369 -0.0937174 -0.029261578 -0.49790153 -0.612508 -0.0012959497 0.06325494 -0.12294157 0.05681335 -0.08799896 0.4910955 -0.38798863 0.19870551 -0.43267152 -0.025079895 0.7402157 0.41852596 0.49548817 0.24213219 0.026732456 -0.13657011 0.35755852 -0.28843755 0.12585697 0.14974074 -0.1179142 -0.0024518503 -0.20407067 -0.4860406 -0.08727864 0.4922711 -0.78110325 -0.32003054 -0.15587418 -0.440431 -0.23250519 0.06114645 -0.07147163 -0.13929816 -0.13602857 0.33136666 0.24219571 -0.06414417 0.10712351 -0.24966246 0.90265685 -0.19846334 -0.23244147 -0.05452131 -0.91582847 0.33511785 0.36566067 -0.016218826 0.19605361 0.24867453 -0.49864835
Compound::DB00690 -0.16666378 -0.56535053 -0.3276973 -0.045916744 0.048335947 -0.06280299 0.01912463 -0.11423812 0.20478153 -0.15641852 0.09306041 -0.28525648 0.485573 -0.35006428 -0.27677456 -0.65681386 0.11934809 -0.005691628 0.016104039 -0.28900698 -0.48911053 -0.260286 -0.6209024 0.9122211 -0.054002628 -0.23785579 0.050792813 -0.0692736 0.26291624 -0.15697151 -0.17037353 -0.020717118 -0.2543319 -0.60827434 0.21587597 0.1641209 -0.20901588 -0.17520934 -0.6535918 0.27526337 0.56486946 0.27193704 0.06753749 0.08751088 0.51165164 -0.045430053 0.00068584864 -0.57804877 0.10879805 -0.17724603 0.09001472 0.13122372 -0.025210591 0.04608926 -0.055898976 -0.19643442 0.07222343 -0.12463001 0.055638153 0.110034265 -0.19249664 -0.08440565 0.4090307 0.015236791 0.1039934 0.044093248 -0.4672572 -0.1578899 -0.4865406 0.18545242 -0.035487067 0.5510133 0.088580556 -0.19791853 0.26908916 0.01327649 0.3418571 0.10545933 0.3240627 -0.09682686 -0.5132396 -0.33610263 -0.076227635 -0.04488085 0.12448999 0.6130774 0.3319748 0.10160152 0.019797534 -0.45163432 -0.79302216 0.4459853 -0.5183792 0.49256554 -0.35602525 -0.037749518 0.005133924 -0.33710435 0.06320188 -0.30576524 0.08707374 -0.5644092 -0.41029775 0.2583656 -0.008474177 0.028079594 -0.66599506 -0.35471812 -0.14751597 -0.041043244 -0.033080723 0.34708205 0.04898859 -0.18273206 -0.07682334 -0.56284744 -0.31322286 -0.021044945 0.07374531 -0.35000592 -0.62905145 0.59117585 -0.12049202 0.08578205 0.10351597 -0.1396569 0.10511559 0.009355745 0.026659945 0.03690456 -0.28268018 -0.082980454 0.07747176 -1.203419 0.23502108 -0.07129644 0.02932916 0.23570079 -0.031461135 -0.10075281 -0.13402043 -0.23970467 0.36680698 0.45764753 0.068193935 -0.117013924 -0.11250944 -0.11181256 -0.3091597 -0.30383703 0.17298876 0.12797508 0.006795711 0.42882845 0.2465654 -0.051369432 0.23818591 -0.3149928 0.3195969 0.37773126 0.34488985 0.2062764 0.20770527 -0.24586293 -0.23332053 0.13976032 -0.10188903 0.23317607 0.3643077 0.09459596 -0.15518536 -0.3856698 -0.3235758 0.038367413 0.035480976 -0.36072052 0.10796204 0.07256463 -0.17413478 -0.41914946 -0.18073644 -0.10135032 -0.3033365 -0.027468463 0.5458204 -0.29032105 0.06921302 0.23189175 0.1234651 0.62489647 -0.11659158 -0.6753412 0.11651685 -0.79807746 0.14350788 -0.093562886 0.17959395 0.11344824 0.33837718 -0.2833872
Compound::DB01589 -0.043675993 -0.50700253 -0.29039174 -0.30988738 0.027653579 -0.1467079 -0.14362991 -0.42384103 0.21281978 -0.13579139 0.029885378 -0.16415183 0.2364067 -0.29063594 -0.0018263487 -0.54338515 0.01602447 -0.088220514 -0.06755967 -0.19630924 -0.65385866 -0.2397956 -0.69584227 0.7031272 -0.12773924 -0.06147772 0.12657925 0.013023203 0.24104035 -0.14210176 -0.31697035 0.10370215 -0.42367625 -0.4765296 0.3228639 0.14973076 0.0004812692 -0.11002813 -0.45085663 0.2486083 0.642271 0.2968745 0.22393735 -0.058170423 0.42860833 -0.0491646 0.1247501 -0.7565762 0.13105053 -0.26628268 0.14409062 0.23067561 0.0028555105 0.010436767 -0.111356065 -0.23089011 0.065866075 -0.11658617 0.15739967 0.055003755 -0.3391599 -0.09847067 0.36786047 -0.040545408 0.13564144 -0.041062575 -0.45867383 -0.06883316 -0.65398747 0.2089111 -0.24605362 0.49027514 -0.037721347 -0.08456199 0.3215686 0.016353564 0.3318718 0.17966393 0.17263618 0.0307433 -0.6172496 -0.18639542 0.034468498 0.06762436 0.09247132 0.64925045 0.54811364 0.10234324 -0.036878612 -0.5048865 -0.80559707 0.55142576 -0.5423716 0.32142833 -0.3517569 -0.15866885 0.0065550352 -0.31436932 -0.031627346 -0.36292157 0.08011691 -0.5893731 -0.54555786 0.4071114 0.023314567 0.032187767 -0.6706789 -0.48205724 -0.064476795 -0.10748002 -0.1764506 0.23106882 0.007904744 -0.23526432 0.0014603442 -0.57170206 -0.2706802 -0.031764545 -0.14996545 -0.4378854 -0.6226953 0.682513 -0.03910777 0.0550667 0.15413707 -0.10891049 0.14905764 0.014771478 0.12241823 0.029366698 -0.31457058 -0.095096245 0.083234236 -1.1229544 0.19980589 -0.087614276 0.015469667 0.16588552 -0.009728754 -0.08184268 -0.068265855 -0.20211364 0.4633434 0.3739981 -0.019555774 -0.09350639 -0.07610075 -0.084433235 -0.47616047 -0.36259305 0.1144525 -0.02074726 0.16743495 0.38211483 0.2727353 -0.08522448 0.2237967 -0.45000088 0.40476403 0.2212745 0.32168674 0.09863449 0.32073382 -0.29559827 -0.2199511 0.30674535 -0.16985328 0.33592686 0.4245293 -0.0020818023 -0.08564434 -0.5663555 -0.44690228 -0.03610575 -0.020357173 -0.44794083 0.11828608 0.009916427 -0.21854846 -0.5037322 -0.15920404 -0.12442911 -0.48453283 -0.09262822 0.51574594 -0.22428446 0.06783141 0.18642816 -0.022386424 0.7316284 -0.20842196 -0.6423268 0.023481539 -1.0904204 0.11697108 -0.09698076 0.24060607 0.10941517 0.2928466 -0.3000932
Compound::DB00741 -0.18578626 -0.30261442 0.21798587 0.18407536 -0.071384735 -0.2628358 -0.10121922 0.31488314 0.3172748 0.116088346 -0.28340754 -0.090660065 0.80048525 -0.2974584 0.012199071 -0.2557828 0.27899125 0.26858205 -0.08745952 -0.4938416 0.033850282 -0.0052637383 -0.4511418 0.7685075 -0.34671605 -0.18058513 0.21684067 -0.18594941 0.20539305 -0.11107641 -0.08428592 0.47570422 -0.104845144 -0.4814355 0.5973953 0.18086942 -0.32521343 0.2892834 -0.42995003 0.34659857 0.46992785 0.16983724 -0.10602071 0.5571382 0.22036783 -0.28184527 0.007378878 -0.1050377 0.073127344 0.090219595 -0.10662798 0.42832294 0.11717013 0.19466132 0.18496604 -0.20866294 -0.13537893 -0.05526394 -0.011420523 -0.03096573 0.065390594 0.16454786 0.2602638 0.07685354 -0.14587696 -0.16265933 -0.028202996 -0.44242716 -0.4445786 0.2526963 0.09755501 0.12781455 -0.09677163 -0.25450876 0.19831914 0.08530217 0.032191057 -0.07325746 -0.3997118 -0.30718917 -0.42258143 -0.49446315 -0.15066558 -0.39270732 0.21777122 0.23405762 -0.014424851 0.19116595 0.08576703 -0.10423216 -0.44578758 0.122720234 0.03738108 0.24346428 0.08267987 0.6079194 -0.16188899 -0.36823136 -0.05904001 -0.15389168 0.19563164 -0.19832698 -0.30291137 0.44638655 0.16818626 -0.14993475 -0.41170308 -0.04174936 -0.11775754 -0.35074607 0.12850642 0.10248019 0.26051238 -0.14353105 -0.01582126 -0.074807934 -0.20897937 0.04754792 0.37231192 -0.35055164 -0.40146542 0.2551128 -0.19425029 -0.29079777 0.16058564 0.047184426 0.11439793 0.20159513 -0.0023604666 0.15576614 0.06853166 0.0133042345 0.23806956 -0.4406734 -0.009155053 0.32383683 0.22676782 0.28507134 0.05521987 0.031822484 0.13646835 -0.15486173 0.102693565 0.089920364 0.016143063 0.009249276 -0.10048837 -0.38867894 -0.52381223 -0.07842042 -0.009429612 -0.16668761 0.2714694 -0.12008508 0.057301316 -0.2135174 0.35617 -0.43986574 -0.26626283 0.4385065 0.308672 0.40120962 0.22504617 0.2179058 -0.05804483 0.30765998 -0.25348023 0.09361183 0.24415818 -0.19501388 0.050465465 -0.18448734 -0.6261975 -0.08022164 0.33172816 -0.5618555 0.08373259 -0.05526815 -0.3826414 0.048145134 0.07601924 -0.30105078 -0.16773416 -0.24335809 0.36178768 0.05760064 -0.17518601 0.115954965 -0.025022665 0.9372957 -0.21138565 -0.38403556 0.090373516 -0.3980532 -0.26697996 -0.05871795 -0.20226774 0.11826058 0.1956902 -0.14915343
Compound::DB00603 0.015412004 -0.29068965 0.2165331 0.23198272 -0.036808193 -0.01943126 0.028509684 0.29101735 -0.023492802 -0.07246115 -0.08679614 -0.045267716 0.66236204 -0.12695798 -0.096777566 -0.09900469 0.28786597 0.24387802 0.041907113 -0.4009468 -0.011865444 0.07153643 -0.2758184 0.89974546 -0.4373467 -0.28138793 0.06531552 -0.014873846 0.10102703 0.011749982 0.049651686 0.3026124 -0.15202151 -0.2935788 0.6497578 0.27006987 -0.28056535 0.24285974 -0.25259823 0.09986144 0.37050784 0.31690043 -0.079966515 0.5895827 0.26478514 0.024666637 0.12613061 -0.13494432 -0.007965616 0.09727885 -0.09298379 0.39792746 0.030982044 -0.02231452 0.22817025 -0.30162993 -0.020257384 -0.0807276 0.010474468 0.12568088 -0.20053448 0.16986117 0.3884855 0.18760617 -0.12427539 -0.27521536 -0.078945205 -0.3864598 -0.46423924 0.33254802 -0.0022990643 0.30397087 -0.046097387 -0.40632415 0.21802923 0.17676581 0.14193463 -0.10771099 -0.23358265 -0.17046441 -0.31651813 -0.61181164 -0.085164785 -0.52104217 0.22470649 0.48046193 0.16424125 0.06294019 0.09913454 -0.3040637 -0.52805734 0.09112223 -0.13564676 0.26491937 -0.03439211 0.50950575 -0.16348979 -0.25850886 -0.0010117909 -0.20200995 0.26507667 -0.29403305 -0.18608814 0.5059376 0.158659 -0.18813765 -0.47826526 -0.08615694 -0.16443996 -0.33579752 0.22595388 0.12282375 0.26728824 -0.17691684 0.11570228 -0.076607734 -0.24867193 -0.04649924 0.3981038 -0.18918468 -0.6450959 0.16981925 -0.15152144 -0.044912305 -0.09158308 -0.031609487 -0.010396268 0.09877625 0.009379487 0.25829697 0.12534606 0.11656455 0.25654477 -0.3682688 0.061955642 0.22511967 0.16214609 0.23300211 -0.08464771 0.2094578 0.11413025 -0.27543896 0.20807932 0.3334031 -0.009629519 -0.22515306 -0.089295685 -0.21121831 -0.60537994 0.037606996 0.04874211 -0.14949866 0.07665992 0.15519305 -0.07851548 -0.14621195 0.25547937 -0.4025438 -0.35846162 0.35964692 0.18481772 0.41931102 0.15621424 0.2914458 -0.047628537 0.28549334 -0.36160553 0.40640995 0.27241415 -0.038341008 -0.0241594 -0.27062735 -0.6013255 0.029308906 0.35172814 -0.73079014 0.02672658 0.053358033 -0.4183287 -0.20186764 0.10855067 -0.4037853 -0.07008121 -0.18882452 0.42595842 0.023491908 -0.20638801 0.01956018 0.061446644 1.0244577 -0.24144919 -0.54617804 0.017426802 -0.647601 0.023687556 -0.111089334 -0.058560684 0.21420905 0.3598987 -0.1818
Compound::DB01489 -0.22662824 -0.8195022 -0.1354107 -0.29652163 -0.019555274 0.062760405 0.014742851 -0.40057188 0.10721952 -0.17536902 -0.07059589 -0.08471887 0.50874525 -0.5345291 -0.2541205 -0.73001575 0.103862986 0.036123015 -0.13446032 -0.18191712 -0.38457534 -0.33318806 -0.63685834 0.6656161 0.013059656 -0.08880477 -0.08664631 -0.19734973 0.33128726 -0.11743071 -0.030484445 0.0055017243 -0.21975878 -0.5153998 0.23227441 0.04467045 -0.5691612 -0.059575353 -0.6726877 0.5008875 0.5029875 0.31713268 0.17863612 0.09419608 0.537959 -0.29648653 -0.051544536 -0.414829 0.09319123 -0.068661325 0.19480915 -0.067284755 -0.13176766 -0.012558655 0.037458308 -0.2711407 0.023318456 -0.16382891 -0.0747252 0.06570343 -0.285004 -0.08292285 0.4488505 -0.026948033 -0.1016329 0.07603775 -0.4420225 -0.09915418 -0.32397535 0.13186637 0.0022205706 0.46871108 -0.08707003 -0.2200216 0.34607998 -0.079583526 0.4477521 0.06276534 0.13457131 -0.029926844 -0.58478236 -0.37226504 -0.17440204 -0.27583677 0.25380287 0.546987 0.19217427 0.29642758 0.021522978 -0.17541477 -0.95253795 0.28949928 -0.3095138 0.44322214 -0.35675427 -0.09817098 0.0645171 -0.39551556 0.009752012 -0.42728245 0.06911322 -0.55842847 -0.4800549 0.26108095 -0.0024680395 0.15311183 -0.6996394 -0.2894858 -0.07929389 -0.11840839 -0.24522513 0.19219515 0.10458131 -0.123627566 -0.23418114 -0.54518276 -0.17551368 0.049268775 0.0737703 -0.44246638 -0.5954085 0.60434234 -0.09025632 0.067996934 0.07400347 -0.020563621 0.17234315 0.18083657 -0.068517335 -0.07015002 -0.3885117 -0.12250897 0.07113349 -1.3211937 0.03949453 -0.09926477 -0.18428262 0.29409304 0.103942126 0.17850728 -0.11710422 -0.35263252 0.29259253 0.42312798 0.111996494 -0.1699457 -0.16321528 -0.31527898 -0.42807558 -0.31920037 0.2454556 0.083591774 0.05053363 0.14889677 0.37038583 -0.22046797 0.15516943 -0.22026648 0.41826868 0.40937778 0.4276849 0.21089783 0.25810573 -0.081437044 -0.23956867 0.11604115 -0.23829348 0.13216045 0.45875204 0.094441205 -0.14552931 -0.21447653 -0.4544735 -0.13434729 0.08002191 -0.43252134 0.08323471 -0.06566998 -0.4151755 -0.4575087 -0.16639918 -0.1436874 -0.2529171 -0.21993838 0.5510096 -0.10339782 0.08528603 0.33145437 -0.15197663 0.82573587 -0.14785635 -0.4636863 -0.018159209 -0.75397074 0.054546356 0.033633284 -0.069871165 -0.0016174567 0.41128218 -0.202387
Compound::DB01594 -0.22748771 -0.6728456 -0.14728549 -0.41750363 -0.026724614 -0.08468765 -0.04870032 -0.44119245 0.30519313 -0.27060336 0.13755125 -0.17412162 0.2895024 -0.35890055 -0.34562704 -0.53078544 0.023424936 -0.027050782 -0.13440259 -0.07977972 -0.52870613 -0.44630107 -0.6962584 0.7326111 0.014808351 -0.055651963 -0.014884955 -0.07810384 0.35016507 -0.15803589 -0.14716305 0.018131481 -0.16401887 -0.46574783 0.0074276114 -0.0508928 -0.17121883 -0.27578107 -0.5650338 0.2948988 0.36915007 0.15965568 0.22635043 -0.15130267 0.50944114 -0.2803755 -0.005376178 -0.48490733 0.21297595 -0.22119457 0.21963696 -0.039331943 0.031345576 0.077212125 -0.16336046 -0.1851645 0.13010404 -0.044402383 -0.14686514 0.09667577 -0.1488939 -0.16666572 0.4255839 0.0034331698 0.08162079 0.1548183 -0.45133868 -0.09507193 -0.4865852 0.042276874 -0.18473326 0.5316254 -0.005849959 -0.13974145 0.27602494 -0.035327908 0.3445885 0.12179144 0.36803022 -0.038208444 -0.6460636 -0.27456862 -0.08102312 0.01618488 0.13845284 0.6171407 0.31030175 0.26992032 -0.09576479 -0.30809557 -0.77132744 0.48260185 -0.44825312 0.38756874 -0.3963902 -0.29459918 0.09470396 -0.26321885 0.12549615 -0.39279494 0.035920408 -0.56217176 -0.4743552 0.1982879 0.048854426 0.26915923 -0.5970109 -0.35528824 -0.057073437 -0.0610705 -0.29173872 0.25699756 0.028074928 -0.09397682 -0.03270432 -0.63530093 -0.2608024 0.008340395 -0.11108836 -0.46179092 -0.508581 0.5952967 -0.09017887 0.072827525 0.16167557 -0.032548185 0.099089175 0.0047320034 0.022408435 -0.13275953 -0.541251 -0.11108012 0.09972531 -1.3188652 0.09628417 -0.04028528 -0.18342166 0.19734758 -0.1418409 0.011335789 -0.11154953 -0.35416085 0.40883687 0.2889564 0.060372185 -0.06781739 -0.13636781 -0.1723528 -0.40208587 -0.29842964 0.22883172 0.1310258 -0.0043027773 0.3838497 0.49976742 -0.10642012 0.23793156 -0.16765195 0.49890074 0.3286369 0.46035695 0.15739603 0.30255786 -0.282984 -0.32031316 0.19562323 -0.10626677 0.16091089 0.3425169 0.007565916 -0.22003523 -0.4984233 -0.3933675 0.019857433 0.15743458 -0.30693763 0.07534054 -0.038520765 -0.13869645 -0.5478299 -0.1871009 -0.025135206 -0.37038577 -0.17051046 0.61423105 -0.29694673 0.09121148 0.30649495 -0.1042058 0.6349474 -0.07958878 -0.5781242 -0.09084078 -0.79812396 0.1801206 0.05121383 0.103161104 0.0017158901 0.33959284 -0.32776827
Compound::DB00567 -0.102727555 -0.5828737 0.040647406 0.525351 0.14580539 -0.01058587 0.02218797 0.031688772 -0.21232566 -0.15337561 -0.097429626 0.026161939 0.7302602 -0.79676694 -0.32902083 -0.6416056 0.12766567 0.32108542 -0.15656857 -0.42777514 -0.13338119 -0.041159507 -0.23097491 1.1986994 -0.20539942 -0.47379342 -0.15307036 -0.123480745 0.1252194 0.22599977 0.10548523 -0.05219395 -0.044358436 -0.69744015 0.21946792 0.35952112 -0.32315794 0.2476609 -0.61278355 0.027598513 0.481851 0.5337778 -0.15326409 0.46900865 0.4797891 0.06796374 -0.10904523 -0.07481458 0.24024332 0.34716952 -0.25116977 0.39086515 -0.06206443 0.04880435 0.19304982 -0.34223604 -0.077692784 0.06533775 0.13591023 0.2012762 -0.19438195 0.21754102 0.4495234 -0.13144037 0.035076603 -0.05778855 -0.17924249 -0.25318897 -0.48554373 0.36196175 0.33104566 0.4699561 0.21526809 -0.6580194 0.2833317 0.1501083 0.44902527 -0.21888612 0.1932332 -0.06494844 -0.34079012 -0.6232372 -0.34578678 -0.7537031 0.4107424 0.38500202 -0.009822808 0.289853 -0.1677622 -0.19646525 -0.7380462 0.32863405 -0.35918796 0.48738438 -0.21604802 0.19364466 -0.1336626 -0.24606639 0.15322356 -0.5683267 0.23242262 -0.34409747 -0.15839353 0.111966215 -0.10538638 -0.13444787 -0.5608076 0.2572818 -0.13441233 -0.06558346 0.013897437 0.104620256 0.036527734 -0.038693912 -0.31076074 -0.14720602 0.075902425 -0.022650734 0.25152862 -0.05843889 -0.55456024 0.19669059 -0.0019333164 0.070267774 -0.03720968 -0.19359311 0.24542154 0.036516465 -0.18648599 0.2697694 -0.20687859 0.04313814 0.21376906 -0.75804 0.12419844 0.1895116 0.34167784 0.3711278 0.17474335 0.3469595 0.3952987 -0.1845888 0.07114635 0.38134357 0.1930187 0.055217393 0.044077713 -0.21719117 -0.32227638 -0.29158992 0.44212034 -0.20489977 0.3218764 0.19119398 0.18635094 -0.23050812 0.24228267 -0.21565244 0.067829855 0.47307447 0.41836196 0.18392833 0.09285437 0.06599396 -0.32151645 0.22334701 -0.43505573 0.02970301 0.36502302 -0.023985833 -0.15095724 0.07852485 -0.15208071 -0.0138794575 0.3344742 -0.36739627 0.1614445 0.23640779 -0.24752884 0.15959668 0.16361311 -0.28998077 -0.12113648 -0.18112533 0.2269504 -0.12580723 0.07899941 0.064428076 0.17140974 0.8579219 0.019947356 -0.17853019 0.22982724 -0.5750863 0.24559537 0.1700351 -0.17952447 0.3280536 0.1746326 -0.2752053
Compound::DB00430 -0.17161562 -0.32341823 -0.13347758 -0.22896248 0.3150526 -0.08110447 -0.14546652 -0.2852657 0.2650586 -0.18536694 -0.43049684 0.11960642 0.43299904 -0.055390183 -0.39874226 -0.46110424 0.2643602 0.13721304 -0.42507556 -0.39086878 -0.06531944 -0.34506503 -0.4641236 0.3530549 0.16377458 0.033196345 0.05747701 -0.07648338 0.15247682 -0.25998992 -0.059512164 -0.09977788 0.016653791 -0.4372533 0.05680909 0.21527854 -0.09753474 0.13316092 -0.4528151 0.4398795 0.38557118 0.14320996 0.19322625 0.12900558 0.41499683 0.018681932 0.027469242 -0.3100013 0.18437445 -0.25577164 -0.12551641 0.055629708 0.13647586 0.17653883 -0.16787644 -0.21067561 -0.015199667 0.26548907 0.19013886 0.092630126 -0.06144373 0.13293727 0.4869396 0.091817185 -0.06835909 -0.11642437 -0.008932881 -0.05316347 -0.3752126 0.4396839 0.18217748 0.25947464 0.35412368 -0.5643855 0.2637841 0.056207035 0.33458075 -0.18216279 0.035533264 -0.026369778 -0.58377445 -0.512924 -0.17101082 -0.348772 0.22721145 0.22595085 0.11635447 0.36645687 -0.35727516 -0.23757079 -0.48757213 0.2279805 -0.22224064 -0.119389035 -0.253977 -0.11694718 -0.1387089 0.046294603 0.2595232 -0.5128887 -0.08310095 -0.17188461 -0.15767589 0.10602224 -0.056728244 -0.07961369 -0.4309764 0.009696342 -0.3049187 -0.21045303 -0.36045924 0.0828847 0.033094097 -0.10903974 0.09286704 -0.27282962 0.10863998 -0.11798551 -0.0911433 -0.27941486 -0.4731911 0.22991063 0.013739291 0.04701682 -0.013110855 -0.04484536 0.42845342 -0.18533336 -0.42804837 -0.011599746 -0.34848583 -0.042220887 0.06792288 -0.6414271 0.10566356 0.095858015 -0.054192245 0.18048128 0.009889787 0.19823289 0.36821407 -0.41311008 0.33920583 0.13253173 -0.1544831 0.13282768 0.1226798 -0.47431073 -0.5601016 -0.047287267 0.2005954 -0.24041715 0.13767666 0.17152217 0.5024635 -0.34512666 0.3285403 -0.49240342 0.5048695 0.71445376 0.2810034 0.18583576 -0.0015827158 -0.112841986 -0.2174284 0.15740731 -0.29439858 -0.05191637 -0.026962668 -0.21976438 -0.15145306 -0.06811603 0.055977132 -0.15494648 0.4607318 -0.46789294 -0.37507147 -0.02822896 -0.1539583 0.09714139 0.11834536 -0.16913658 -0.25528255 -0.30009073 0.119711585 0.12723684 0.3888133 0.077653565 -0.011577448 0.39299372 -0.102107644 -0.071737014 0.17758758 -0.49266094 0.26531568 0.36447865 -0.019064235 0.06061587 -0.039346315 -0.29373145
Compound::DB00186 0.023199916 -0.60203284 -0.30755982 0.055488907 0.006918387 0.07284495 -0.07720784 -0.27218744 0.040938593 -0.20102331 -0.05233204 -0.004132269 0.2528364 -0.53576595 -0.1968054 -0.52181476 0.123876125 0.26661116 0.13920583 -0.29837567 -0.5104312 -0.20223275 -0.4537497 0.83317304 -0.18906201 -0.13554166 -0.061029047 -0.119539894 0.28339514 0.018293086 -0.17461169 0.18678449 -0.3016156 -0.26506346 0.41688755 0.0901936 -0.3553751 -0.12725236 -0.5621002 0.38926813 0.41766793 0.4187376 0.069767915 0.12466972 0.60872686 -0.13117465 0.0805567 -0.6372039 -0.014855238 -0.07171894 -0.013552847 0.15659922 -0.1588883 -0.1297857 0.20222445 -0.31939682 0.0904449 -0.20098929 0.090000324 0.0908248 -0.38604704 -0.0849898 0.3907561 0.041724484 0.0056415293 -0.0026612997 -0.372018 -0.38533783 -0.62299514 0.113927685 -0.19356029 0.4170049 -0.12362359 -0.2275593 0.3724399 0.027956663 0.45547736 0.10856482 0.17870049 0.0034127 -0.5348763 -0.50772166 -0.017438008 -0.17969283 0.2597934 0.79879254 0.07848193 0.15969421 0.058218963 -0.23260315 -1.0747937 0.31105044 -0.39376926 0.51211464 -0.31032422 -0.026736362 0.088687524 -0.42309037 -0.010508274 -0.2886972 0.14299545 -0.69963413 -0.40007582 0.3373361 -0.048123617 0.03542569 -0.7973515 -0.26023355 -0.1035505 -0.07465233 -0.040505107 0.29321986 0.04603505 -0.33384264 -0.1243685 -0.35114172 -0.23548086 0.09136647 0.1855868 -0.31546256 -0.6183936 0.5860962 -0.14160149 0.14696412 0.13095436 0.07334276 0.055175398 0.15417023 0.037342284 -0.08941839 -0.261032 0.02600784 0.12348479 -1.0373555 0.18646021 -0.12768082 -0.023182506 0.23643416 -0.017150052 0.04817943 -0.1379584 -0.31651515 0.2998606 0.4830587 -0.053847276 -0.19179402 -0.071632735 -0.100787774 -0.37257195 -0.34815797 0.27450103 0.078870766 0.022288589 0.3401449 0.17038673 -0.25983474 0.13551685 -0.31622142 0.14987741 0.18358403 0.31606135 0.22368133 0.21768582 0.034077954 -0.11897141 0.21009259 -0.31214574 0.34666085 0.325752 0.06951611 -0.05081974 -0.4250883 -0.67339796 0.09521852 0.13479185 -0.522996 0.1584612 0.06121351 -0.29592523 -0.47330195 -0.28397244 -0.25921363 -0.21577495 -0.18735904 0.6711401 -0.23165709 -0.03672974 0.22779056 -0.032889117 0.9326037 -0.20679562 -0.63310146 0.093484454 -0.8590842 0.20030895 -0.057776757 0.07905021 0.05051408 0.50244135 -0.2347551
Compound::DB00635 -0.007981139 -0.23507455 0.12852632 0.124373876 -0.033950195 -0.13648781 -0.19896974 0.0890708 0.5360726 0.11120723 -0.6540202 -0.09349646 0.6786973 -0.29706025 0.047583193 -0.2221606 0.4665965 0.19704019 0.029532151 -0.41012198 0.057271924 -0.028167266 -0.49890864 0.66170675 -0.4038681 -0.025677517 0.29299223 -0.22206248 0.28428033 -0.1754633 -0.3377369 0.41650745 -0.3729362 -0.41336605 0.8749512 0.15152422 -0.30812138 0.24012625 -0.3613361 0.49541935 0.50384855 0.21745495 -0.062358584 0.5916029 0.35166797 -0.29064775 0.1259693 -0.3899632 0.05052931 -0.015330907 -0.13879178 0.47765625 0.12834944 0.15005694 0.25745854 -0.27240023 -0.049649384 -0.12344088 0.05220249 -0.024912374 -0.098443575 0.08025988 0.21250652 0.12871861 -0.12261251 -0.2039896 -0.082046 -0.4292176 -0.55711967 0.1845128 -0.032989047 0.07894318 -0.081105426 0.0579982 0.25814083 0.056898043 0.10540544 0.013877969 -0.34723833 -0.29269186 -0.51236856 -0.42537883 0.043247443 -0.30704102 0.24503057 0.38607547 0.051439732 0.10749482 0.2315408 -0.19913907 -0.59060687 0.0062241293 -0.04805595 0.08139445 -0.047171008 0.49794558 -0.034594707 -0.4714223 -0.16983442 -0.1276605 0.029565448 -0.24667104 -0.34738475 0.48950058 0.066607796 -0.1974101 -0.53222793 -0.09586993 -0.101903416 -0.32244 0.07099709 0.0998204 0.30017734 -0.12635477 -0.090428725 -0.09964769 -0.31756958 0.103000715 0.26843223 -0.5230309 -0.44963908 0.3156203 -0.18966854 -0.14089344 0.13914536 0.076416634 -0.032153126 0.22433893 0.110812634 0.09660107 0.021999449 0.06663467 0.23867014 -0.4108135 0.020807976 0.116623834 0.19298618 0.24382624 -0.016078029 -0.015185795 0.31793115 -0.19188094 0.1905889 0.17655605 -0.052470986 -0.040173713 -0.00753993 -0.32278472 -0.6327369 -0.09886429 -0.020384464 -0.31759003 0.27242234 0.009663004 0.011065743 -0.36711755 0.32392287 -0.54960185 -0.10878991 0.3191923 0.27372268 0.41677755 0.18660352 0.21487561 -0.07490644 0.2984151 -0.20575312 0.16567403 0.11611984 -0.24896826 0.123484984 -0.36254463 -0.66400385 -0.23644361 0.2776012 -0.5621453 0.07196498 -0.0983755 -0.42650723 -0.03759061 -0.005162268 -0.35848376 -0.083172135 -0.1006954 0.25349963 -0.05300686 -0.15440279 0.06637616 -0.12153897 1.0365747 -0.3256178 -0.50757164 0.14057338 -0.45778802 -0.093653746 -0.12179663 -0.16913413 0.057214033 0.25837892 -0.06278821
Compound::DB01222 -0.37336588 -0.13300887 0.19403936 0.4050537 0.15940553 -0.20516902 -0.14612828 0.5700062 0.24989378 0.12071157 -0.15162097 -0.07471201 0.88036484 -0.27088797 -0.069596075 -0.19084644 0.2573402 0.32613632 -0.0009654093 -0.579904 -0.044028923 0.15399116 -0.3026896 0.68442935 -0.36302993 -0.30091432 0.14086443 -0.102896884 0.06610786 -0.1499515 -0.19126807 0.580394 -0.05186738 -0.49495724 0.5324202 0.28768662 -0.119799316 0.40943268 -0.4902842 0.24955305 0.28503618 0.17816171 -0.32038996 0.46869424 0.14551842 0.09143733 0.09422131 -0.10530929 0.14437857 0.0007797661 -0.2608923 0.37395397 0.0009992372 0.07264607 0.17133659 -0.42758393 -0.12760608 0.17415753 -0.14010046 -0.018266985 0.044382285 0.14476782 0.2927881 -0.017135434 -0.21844372 -0.081476115 0.0039832653 -0.4739637 -0.40068743 0.14854866 0.15221435 0.06130627 -0.14222941 -0.31775147 0.17927857 0.22567204 0.0065630367 -0.045356344 -0.3678895 -0.3711274 -0.10642049 -0.55163556 -0.18252158 -0.31811193 0.14823405 0.22592242 -0.038038265 0.26764113 0.124105304 -0.07556844 -0.49305823 0.07020287 -0.04006786 0.21964373 0.22119282 0.548792 -0.13099779 -0.47207454 -0.08022933 -0.048004713 0.19889429 -0.25433695 -0.17998461 0.4097117 0.07005746 -0.2591963 -0.34582868 -0.09884128 -0.14437065 -0.2323011 0.24526475 -0.04295489 0.28145844 -0.23095573 0.11226401 0.087175645 -0.24195859 -0.07419068 0.40868938 -0.25946313 -0.43293637 0.23816189 -0.12775716 -0.2646921 0.10565278 -0.0016907075 0.16201064 0.09307324 0.008905148 -0.021407906 0.19496746 0.1764854 0.32239342 -0.20371269 0.16612704 0.33321875 0.24938558 0.35294634 -0.023748538 0.0867599 0.1836903 -0.14208676 0.010946043 0.23648971 0.108070716 -0.08960834 -0.057356205 -0.26429236 -0.61759734 0.019450115 0.069380865 -0.24510369 0.19809934 0.13847302 0.0860744 -0.3134975 0.30383518 -0.4598894 -0.50859755 0.41825664 0.2946054 0.5614836 0.25704008 0.32726905 -0.008893993 0.40675038 -0.3239377 0.07024593 0.38747114 -0.2270951 -0.028531104 -0.17569228 -0.6019585 -0.22660606 0.43466932 -0.54685783 0.12335274 0.12782916 -0.49637544 0.039909806 0.17042382 -0.3122024 -0.08877819 -0.12789659 0.2653317 0.023433903 -0.17484175 0.0056556608 0.2533052 1.0445665 0.009274369 -0.40991443 -0.04409722 -0.5267218 -0.007071912 -0.13662656 -0.076492175 0.2864796 0.307965 -0.2214428
Compound::DB00408 -0.039913893 -0.37657493 -0.27172643 0.51289326 0.11699278 -0.16092512 -0.26875225 0.24581082 0.18175681 -0.2528445 0.0038127243 -0.031135492 0.31527776 -0.159731 -0.081996 -0.444891 0.16175285 0.23194732 -0.16317569 -0.12948355 -0.37123203 -0.20108898 -0.17264958 0.50503486 -0.012012174 -0.006186956 0.15882334 -0.1461961 0.44480896 0.121079996 0.111753084 0.12745842 -0.15996784 -0.2576423 0.07996341 0.2264837 -0.21387151 -0.09264682 -0.5386188 0.36843428 0.348672 0.04067262 0.28436506 -0.024634998 0.43662712 -0.36026266 -0.23887788 -0.20469029 0.12340541 -0.16741805 0.072309434 -0.018735588 -0.27573633 0.060364675 0.036359295 -0.08461658 -0.06688604 0.04878187 -0.08080703 -0.06685904 -0.023713782 0.1607661 0.28277537 0.016271705 -0.010506552 0.064786375 -0.36388046 -0.37502193 -0.642531 -0.006700743 -0.030440832 0.42231905 -0.037989084 -0.38006505 0.41949978 -0.022578003 0.18276063 0.10682113 -0.06546081 -0.15324254 -0.23043922 -0.51686174 0.023835719 -0.17447937 0.13613385 0.42116958 0.19570082 0.27580762 -0.15393457 -0.009512412 -0.75284386 0.2965477 -0.25711817 0.28213325 -0.21693148 0.07617848 -0.043028533 -0.30136687 0.0015677675 -0.089928955 0.064263746 -0.7471074 -0.28761524 0.3185137 0.106438376 -0.075714834 -0.6062176 -0.037434723 -0.12414981 -0.04100128 -0.0692661 0.14558342 -0.072248906 -0.3495859 -0.03546384 -0.53740406 -0.19083168 0.14286678 0.1451462 -0.31917343 -0.4200296 0.47096255 -0.21556291 -0.3181751 0.14919257 0.096293524 0.18186392 0.05122313 -0.029701298 -0.20717326 -0.1594425 -0.3947216 0.109443 -0.9309825 0.07604269 0.04551128 -0.05458623 0.28870896 0.24214938 0.037340574 -0.09058343 -0.062817864 0.112657025 0.2688506 0.21123025 -0.20171216 -0.26490495 -0.101174995 -0.37633342 -0.24535434 0.097889446 0.103036195 0.046990123 0.27557877 0.15991785 -0.09826767 0.30714107 -0.19931899 0.04377059 0.41507992 0.55267066 0.3442344 0.3550151 0.033705384 -0.035249963 0.15553622 -0.250094 0.19834979 0.58130413 -0.072001904 0.04237298 -0.24048671 -0.59161973 0.032126945 0.026643854 -0.39468974 0.1741818 0.061418995 -0.43178743 -0.45000648 -0.18820296 -0.084049016 -0.4602574 0.005659622 0.5748407 0.17645347 -0.27216953 0.21109332 -0.041948654 0.7072546 -0.1380667 -0.588165 0.03123694 -0.6712176 -0.1976573 0.10215909 -0.030931199 0.09222237 0.35391206 -0.35752967
Compound::DB00349 0.012205764 -0.8615173 -0.29462105 0.049092326 0.112126276 0.11799362 0.0069745723 -0.16546103 -0.11519192 -0.2947865 -0.013175971 -0.14477672 0.38393602 -0.474642 -0.1968643 -0.7629423 0.105575666 0.16624923 0.09476537 -0.32599613 -0.4044385 -0.19202448 -0.47337693 0.80174357 -0.20904626 -0.29739255 -0.09181746 -0.0648431 0.29903767 0.02661181 -0.14082144 0.13189986 -0.32220885 -0.36324152 0.45584303 0.13248062 -0.38824457 -0.08826841 -0.6298265 0.4174925 0.5685428 0.39294967 0.054467868 0.14922678 0.4740889 -0.13261877 0.048698097 -0.65846103 0.07080534 -0.09991919 0.11329757 0.13944437 -0.14733763 -0.08363636 0.018382246 -0.29468182 0.09480046 -0.17085616 0.1392569 0.062641256 -0.25503668 -0.106147744 0.36973166 0.05670286 -0.010241243 0.09865401 -0.4516639 -0.19703959 -0.6028463 0.025547113 -0.12972125 0.36464858 -0.08093496 -0.13997638 0.25073788 0.06312463 0.36618426 0.05813347 0.15410924 -0.015873507 -0.60178065 -0.403369 -0.057834454 -0.09519842 0.31513125 0.6042187 0.19985089 0.24272475 -0.0028747169 -0.40992066 -1.0079551 0.40162045 -0.41757464 0.56574243 -0.26369992 0.05299149 -0.0066405004 -0.34663635 -0.0023488195 -0.13472754 0.1632043 -0.693307 -0.466295 0.39114353 0.028965987 -0.08017021 -0.77929634 -0.38584566 -0.15214093 -0.1270622 -0.032607887 0.25877127 0.06327004 -0.38860878 -0.087089 -0.46219927 -0.24374402 0.064553045 0.17952918 -0.29360765 -0.6874771 0.67781353 -0.11991186 0.11978136 0.18609248 -0.01601062 0.2692808 0.09936212 0.02238588 -0.06499386 -0.18783635 -0.020489687 0.1455498 -1.0552635 0.19243114 -0.061325174 -0.07009362 0.26649243 -0.09465922 -0.089611374 -0.07511195 -0.21822914 0.36449248 0.5221971 -0.10117657 -0.16809414 -0.05144183 -0.14261901 -0.40322492 -0.1961827 0.20581576 -0.016805949 0.082141735 0.38200614 0.16723539 -0.22015728 0.1845844 -0.44243482 0.14611429 0.41881874 0.20647536 0.2584567 0.19591449 -0.14093605 -0.18541451 0.28365538 -0.2884087 0.2091185 0.356235 0.041250944 -0.0265581 -0.351672 -0.5443343 0.009313978 -0.009777533 -0.56528854 0.09151164 0.06920918 -0.31810272 -0.39850637 -0.104938164 -0.20082802 -0.25693387 -0.08037122 0.5483945 -0.1625928 0.017537653 0.18838501 0.0487965 0.8597177 -0.21209766 -0.6500242 0.070901096 -0.9171049 0.14898793 -0.05712629 0.22560537 0.1208327 0.49603328 -0.23130223
Compound::DB00683 -0.087228544 -0.66273874 -0.29825485 -0.055507515 -0.015574425 0.039042287 0.072512634 -0.09962659 0.056511167 -0.18703979 0.13235402 -0.20621012 0.39133602 -0.37518433 -0.16959707 -0.5024079 -0.010575566 0.1311033 0.15206546 -0.27511066 -0.4305176 -0.20220546 -0.56474775 0.8319594 -0.19256502 -0.22156301 -0.0030171394 -0.13616283 0.18120338 0.043048438 -0.18820676 0.1411602 -0.17920709 -0.39477554 0.26072255 -0.045540713 -0.26273713 -0.13733092 -0.5919995 0.27586693 0.5202289 0.31818885 0.08669692 0.1827585 0.5654334 -0.10871566 0.0051054885 -0.5311919 0.07407174 -0.18337761 0.1338236 0.112612575 -0.11356269 -0.07215731 0.040386237 -0.24591924 0.13283493 -0.14533573 0.027886726 0.103673086 -0.26697764 -0.13597347 0.3909428 0.0233796 0.08564217 -0.018919708 -0.458566 -0.23775655 -0.54601306 0.1071964 -0.1596103 0.47810397 -0.12211435 -0.20979735 0.27171472 -0.07486217 0.3697432 0.16828601 0.16025673 -0.05252416 -0.5543396 -0.4009504 -0.104345456 -0.013276571 0.16673079 0.7321282 0.24364406 0.14237928 0.033595692 -0.397121 -0.9132115 0.35555407 -0.38012412 0.5117985 -0.29459402 0.05717398 0.051071767 -0.29772368 -0.029706381 -0.2601004 0.10675738 -0.5509218 -0.36816943 0.32661086 0.0027681212 0.040793624 -0.59752816 -0.29856795 -0.062235422 -0.066470206 -0.000101134676 0.3486948 0.116447255 -0.2373419 -0.071256295 -0.43976483 -0.32652447 0.07353887 0.16964988 -0.36174175 -0.5851554 0.5765547 -0.10277688 0.017762313 0.12112851 0.00399994 0.07993697 0.15469714 0.09448685 -0.015741732 -0.20364343 -0.057740755 0.05363521 -1.1099013 0.1378399 -0.06946653 -0.026271375 0.28026354 -0.037932117 -0.07176528 -0.21743467 -0.18947208 0.31088337 0.41463754 0.09371948 -0.1522693 -0.19359563 -0.09546167 -0.2871004 -0.21751463 0.19201526 0.13053562 -0.014412234 0.3827397 0.16143571 -0.058945652 0.22053911 -0.2630931 0.13411176 0.27104142 0.31703544 0.22523542 0.23636128 -0.08214866 -0.24495699 0.15292259 -0.23986067 0.2775853 0.37790772 0.040122412 -0.1770054 -0.32724947 -0.45956457 0.07101332 0.0018370192 -0.44287345 0.16695212 0.14213851 -0.18233171 -0.44353867 -0.15560272 -0.15354143 -0.25005272 -0.10554518 0.6176976 -0.25097325 0.029529342 0.23360772 0.03015799 0.702617 -0.11322635 -0.67786896 0.016055798 -0.732538 0.042386822 -0.17062852 0.010457828 0.07945945 0.45808727 -0.24124646
Compound::DB00687 -0.035370704 -0.38457853 0.27057943 0.0360168 -0.14344491 -0.060402483 -0.04151124 0.073373385 0.47782543 0.02228148 -0.48470634 -0.12271865 0.85645103 -0.33049753 -0.25498456 -0.24639079 0.42546672 0.2586369 -0.11042509 -0.37076473 0.13815144 -0.14971043 -0.4679168 0.6976788 -0.36428115 -0.049996532 0.13148357 -0.15747851 0.3768026 -0.08126307 0.0014652342 0.35408115 -0.21938369 -0.34636396 0.6881983 0.20123543 -0.48088387 0.24948876 -0.37361136 0.38682675 0.39922982 0.19365594 -0.041263893 0.6078106 0.26679292 -0.33723304 0.080715925 -0.10033422 0.06307104 0.11468188 -0.15948811 0.29368907 0.099199936 0.13882618 0.27924758 -0.16148041 -0.16738123 -0.111901686 0.038383882 -0.028967671 -0.10289071 0.16347858 0.3383782 0.14364105 -0.23062792 -0.06739956 -0.091629535 -0.1848435 -0.30713338 0.17569731 0.12149977 0.106558405 -0.0058823093 -0.195616 0.2201947 0.06959216 0.034237575 -0.026548373 -0.27642623 -0.19539739 -0.51195604 -0.53657836 -0.05883864 -0.58001536 0.32758883 0.29831335 0.0030170819 0.24972852 0.13159151 -0.091088265 -0.4785524 0.09782459 -0.01658209 0.17740235 -0.0008379092 0.46172696 -0.0970629 -0.4663803 -0.1179269 -0.16961661 0.098933615 -0.16534945 -0.27271712 0.5397685 0.15742457 -0.1211732 -0.33136487 0.010495814 -0.123340614 -0.36977193 0.078294195 0.11133977 0.29080164 -0.08817659 -0.09853669 -0.16391382 -0.2696739 0.056168873 0.42304543 -0.3779369 -0.4124226 0.2462969 -0.27883846 -0.1509699 0.014394236 0.05523845 0.07494643 0.19786863 0.00084863714 0.1249355 0.048164386 -0.008770048 0.24390845 -0.52867806 0.02406779 0.10382276 0.064822964 0.2405475 0.0034768367 0.10593412 0.22962968 -0.2817224 0.098329976 0.09863887 -0.0321158 -0.067465626 -0.03949401 -0.4533989 -0.6328336 -0.07525302 0.055151958 -0.1527723 0.1914333 -0.028770987 0.12585029 -0.2650314 0.2601521 -0.49490184 -0.14703484 0.4542161 0.28147304 0.54327106 0.056596622 0.25089672 -0.1116484 0.29937795 -0.1950366 0.1282249 0.11007106 -0.23291974 0.004208764 -0.15164313 -0.56448406 -0.15058655 0.39480504 -0.59663266 -0.09744091 -0.12385962 -0.46098676 0.014230932 0.083086774 -0.27506202 -0.04769023 -0.17750052 0.27634865 -0.027709119 -0.16350923 0.0548464 0.009727514 0.9874442 -0.20073274 -0.42283142 0.05093495 -0.34458354 0.018238137 -0.03512787 -0.16197121 0.17630872 0.38514712 -0.21495146
Compound::DB08970 -0.36881548 -0.53339016 0.5222536 -0.1760349 -0.19763936 -0.0290009 0.08348283 -0.0133226905 0.7212747 0.07388 -0.63022524 -0.1477126 0.9598673 -0.5470605 -0.38046032 -0.39147538 0.5888043 0.18922706 -0.23138979 -0.41206092 0.21917681 -0.16972438 -0.53770024 0.6547702 -0.36193758 -0.116799854 0.17379469 -0.23563814 0.33029324 -0.21246965 0.05796791 0.38532832 -0.1618367 -0.41938916 0.70282793 0.16371085 -0.6167676 0.39732367 -0.47091585 0.57941884 0.20152144 0.169212 -0.044866584 0.73844445 0.22208068 -0.49753854 0.04967958 -0.0130921975 0.15670279 0.20889889 -0.17764786 0.22427495 0.1143124 0.35669848 0.273135 -0.12643275 -0.26644367 0.013672154 -0.15406108 0.034808423 0.01714501 0.17299624 0.2705488 0.097878344 -0.4032686 -0.11837058 0.03540608 -0.29613385 -0.20184094 0.0697646 0.26143467 0.07374363 -0.04506245 -0.23518753 0.22098576 0.20540464 0.04870919 -0.06469407 -0.23534888 -0.28530002 -0.33511534 -0.5814561 0.021141643 -0.6387535 0.48021656 0.10105814 -0.14337105 0.3478637 0.15391758 0.17031051 -0.5634743 0.07191097 0.058210853 0.16811465 0.06477434 0.60167205 -0.15569338 -0.6375406 -0.01677002 -0.2107572 0.12526326 -0.33143902 -0.4113151 0.52129084 0.29629916 -0.0719622 -0.4681832 -0.04694971 -0.096684515 -0.39416993 -0.059943043 -0.061106116 0.38284755 -0.05870198 -0.17135194 -0.16427313 -0.22991884 0.024481248 0.4196118 -0.4302503 -0.40067083 0.283621 -0.24779503 -0.09047563 -0.051689565 0.05159614 0.26670516 0.254178 -0.014632168 0.13813564 -0.017374016 -0.1081183 0.28166676 -0.5471706 -0.03739228 0.13137518 -0.07619418 0.26271468 0.04917555 0.22509664 0.3531915 -0.35789207 0.070631474 0.04777254 -0.01922077 -0.088943265 0.014029515 -0.66641676 -0.7648693 -0.1175515 0.1081788 -0.32528737 0.32593545 -0.33261546 0.18018767 -0.46780246 0.27660918 -0.5230655 -0.13430947 0.47773486 0.45908287 0.616078 0.12143455 0.22949542 -0.11038417 0.42238116 -0.25079376 0.042026687 0.14564668 -0.19480367 0.104922324 -0.17689288 -0.7620187 -0.33399323 0.5037377 -0.7105504 -0.1346821 -0.27186874 -0.74086475 0.0910266 0.07649758 -0.3229419 0.008672899 -0.2452834 0.2398215 0.14656448 -0.16072775 0.11831137 -0.11429499 1.2531666 -0.3065962 -0.32149056 0.060588755 -0.31182054 0.01728169 0.06741948 -0.18249887 0.18861723 0.37082565 -0.15668212
Compound::DB00229 -0.28276166 -0.14451866 -0.008768658 -0.03770448 0.058352835 -0.0792314 -0.30178174 -0.16976225 0.11309113 0.054159615 -0.2875918 -0.062451083 0.67526066 -0.3542936 -0.18825679 -0.43357617 -0.0065841977 0.63105553 -0.029735914 -0.3323913 -0.10403123 -0.19077873 -0.17851491 0.5874907 0.14302306 -0.00603174 -0.27110425 -0.14424491 0.17847896 -0.13576289 0.10960816 0.14301409 0.17613818 -0.34600118 0.08899146 0.39063504 -0.22757585 0.32617706 -0.44037074 0.34890163 0.09889729 0.28755522 0.0010548971 -0.13629977 0.38350677 -0.076139756 -0.08502894 0.0593284 0.16786729 -0.029715043 -0.2098189 0.057808753 -0.21439533 0.23045155 0.025537323 -0.3958406 -0.3743443 -0.058984213 -0.0035266534 0.08454976 0.11547668 -0.045056336 0.49319497 -0.016306357 0.02349094 -0.13035825 -0.17572807 -0.6021292 -0.63489145 0.2702016 0.34748077 0.4413411 0.2553656 -0.51446617 0.2028128 0.21547249 0.23484044 -0.14903563 -0.191738 -0.22972332 -0.0947368 -0.6746002 -0.35201657 -0.7172127 0.1302903 0.28317058 -0.18562438 0.3104266 -0.31639338 0.15906443 -0.63531226 0.10908109 -0.1845338 -0.044749267 -0.225518 0.0066975257 0.081043944 -0.009425564 0.12812078 -0.6358206 0.046442047 -0.16093747 -0.14797953 0.11769974 -0.37711748 0.056949813 -0.52686596 0.15910618 -0.011399343 0.1848649 -0.26593596 0.15836553 0.09622807 -0.09637168 0.16161989 -0.43359494 0.053123366 -0.09611276 0.10681998 -0.33057415 -0.39083537 0.09911742 0.0977277 -0.2544224 0.12003974 0.038908876 -0.017925672 -0.047668163 -0.26504576 0.037016653 -0.42142555 0.2667687 0.38878185 -0.5333858 -0.021191647 0.26450244 0.094908096 0.5085668 0.22251394 0.55881846 0.36259845 -0.22749318 -0.0041046604 0.3616722 0.2667975 -0.11871295 -0.087682866 -0.14179114 -0.5500234 -0.14225233 0.052215368 -0.1818271 -0.018197807 0.12290942 0.30797806 -0.3051501 0.25589773 -0.047393654 -0.032386374 0.41377744 0.52513725 0.32101658 0.27478972 0.29003653 -0.33833408 0.12105509 -0.19741476 -0.014375089 0.28485 -0.40588218 -0.26478165 -0.10288953 -0.19913206 -0.19596274 0.40261704 -0.17781031 0.131209 0.035424985 -0.512411 0.0053763874 -0.11706139 -0.1498691 -0.14274138 -0.23393963 0.23331928 -0.057685263 -0.14874038 0.09881087 -0.040906716 0.79747945 -0.07138289 -0.2075922 -0.051323067 -0.36654752 0.19396706 0.4274681 -0.27525005 0.07455793 0.03046118 -0.35139534
Compound::DB01139 -0.35134798 -0.5628976 0.15239687 -0.13888872 0.16205962 -0.039171755 -0.08548272 -0.26246583 0.22558616 -0.047074012 -0.19998746 0.0054430324 0.6360856 -0.4774241 -0.34938058 -0.5813242 0.25076964 0.2043053 -0.345403 -0.35866767 -0.12110601 -0.11052029 -0.3541372 0.71548533 -0.00090063986 -0.22455305 -0.1304242 -0.06763376 0.24175397 -0.25481507 0.09186987 -0.051464833 0.070525214 -0.5986086 0.122351006 0.2888359 -0.44646943 0.3965466 -0.5783802 0.38939962 0.23549306 0.2529605 0.116517305 0.14102237 0.3808276 -0.087546974 0.047427796 -0.09355286 0.32057908 0.20217939 -0.1281303 -0.031937692 0.018131807 0.14897154 0.030766312 -0.39432263 -0.14450961 0.2541626 -0.09900393 0.20757051 -0.11211207 0.20555848 0.5992578 0.04868758 -0.18739082 -0.116973795 0.015983805 -0.25515357 -0.259867 0.22415489 0.32078227 0.3442493 0.10161972 -0.5393026 0.2934434 0.069453456 0.3624281 -0.21013324 0.13067898 -0.049840037 -0.39352223 -0.64342654 -0.3477408 -0.72403073 0.3921491 0.14334029 0.045691103 0.37050536 -0.25529432 0.061208203 -0.6189189 0.09622611 -0.19634868 0.10087111 -0.17782576 0.07502607 -0.086640514 -0.15954606 0.18380213 -0.60409766 0.12703341 -0.34956175 -0.30222106 0.12532356 -0.062240873 0.075468406 -0.5860481 -0.042119447 -0.1396218 -0.15128374 -0.3027093 0.1196153 0.23015894 0.05683369 -0.025719132 -0.33445963 0.17705803 -0.05054079 0.1559649 -0.3366426 -0.63485074 0.20410073 -0.03253106 0.11709775 -0.1529814 -0.11664318 0.3025537 -0.04426449 -0.21567969 0.026380729 -0.43920228 0.035922248 0.20287247 -0.74591696 0.07187322 0.101300456 -0.05589339 0.3819798 0.077738754 0.49907118 0.55239946 -0.42987925 0.14769927 0.3033861 0.10267956 -0.01673483 -0.024895543 -0.40351582 -0.58021367 -0.120038725 0.14319652 -0.3219048 0.32106438 -0.08743417 0.4214827 -0.4802466 0.15721998 -0.2687153 0.4175293 0.5410614 0.5292637 0.23065084 0.21922551 -0.01860887 -0.2170921 0.21718422 -0.3382636 -0.09109738 0.32743195 -0.090100236 -0.15088147 -0.032218803 -0.23386356 -0.20025721 0.48576275 -0.46575406 -0.19441214 -0.21207143 -0.43976855 -0.036805402 0.10502272 -0.22304186 -0.13793468 -0.29097664 0.1828942 0.038606416 0.23486623 0.1927795 -0.115307376 0.8702194 -0.016660841 -0.052856687 0.021648282 -0.55107266 0.29930058 0.23594552 0.04885341 0.204109 0.08471649 -0.30811495
Compound::DB00902 -0.1014582 -0.49521405 -0.09562701 0.11980128 -0.069030024 -0.009197437 -0.343869 -0.100117795 0.13977383 -0.0827938 -0.18166748 0.034141254 0.6429 -0.2788515 -0.16371433 -0.44495553 0.20346923 0.2407462 -0.45827338 -0.08088352 0.0033481044 -0.24604915 -0.25922722 0.4358099 0.15787823 0.20026907 0.041691706 -0.071874745 0.4296919 -0.24324894 0.44155973 0.043676384 -0.12403429 -0.10414674 0.1242293 0.46063128 -0.59516853 0.05055801 -0.7027163 0.5105186 0.45718223 0.21231063 0.24452229 0.05078276 0.38572115 -0.5518717 -0.23512551 0.019924028 0.12417645 0.19014885 0.08096424 -0.12510924 -0.23902187 0.13677007 0.14459348 -0.22088976 -0.06395222 0.09448172 -0.12543234 -0.056001622 0.08753583 0.21095736 0.40485126 0.09570116 -0.2924529 0.10457275 -0.35796925 -0.26768765 -0.3819789 0.06376125 0.10106892 0.36005276 0.07192081 -0.2330574 0.48765677 0.014063956 0.2233145 -0.11541479 -0.20538743 -0.12616459 -0.430482 -0.5688103 -0.075497724 -0.67644113 0.33142847 0.2854647 0.086139895 0.4585026 -0.20280157 0.09456399 -0.71902794 0.14144179 -0.034119014 0.2509747 -0.20204145 0.0582338 -0.059010092 -0.49753103 0.034669284 -0.21965098 0.19727968 -0.61596555 -0.46085227 0.26203772 0.11295369 0.060396563 -0.58135533 -0.01972559 -0.17745371 -0.24599734 -0.36843094 -0.10795996 -0.045878585 0.0003553376 -0.22883147 -0.57186913 -0.043359555 -0.02179775 -0.010662222 -0.22676054 -0.49344644 0.4722261 -0.22244214 -0.15346415 -0.018568689 0.039542347 0.28940547 0.11391192 -0.19230309 -0.17918624 -0.32311025 -0.3619981 0.18618904 -1.0088614 -0.11309582 0.1124305 -0.35276583 0.41856718 0.23478076 0.32835886 0.17548041 -0.26338091 0.14011574 0.17818256 0.2281325 -0.39362264 -0.12243328 -0.43529007 -0.659007 -0.26452276 0.21891698 -0.08297581 0.12268054 -0.048162498 0.3433286 -0.34694907 0.33055115 -0.13040674 0.18064623 0.5606724 0.54932386 0.45521274 0.3472539 0.12826523 -0.0605432 0.15893924 -0.3134111 0.07365686 0.71766883 -0.058610916 0.015500059 -0.15392378 -0.6007947 -0.29424465 0.11513454 -0.5794819 -0.06435876 -0.12694134 -0.6360175 -0.5659841 -0.1053303 -0.053940453 -0.36315802 -0.17595188 0.40123734 0.3223402 -0.27923676 0.24958034 -0.39159185 0.96320605 -0.40461627 -0.43977806 -0.015562937 -0.7031372 0.08234637 0.32733375 -0.14955196 0.030438092 0.42490155 -0.22379722
Compound::DB00623 0.060866512 -0.4218006 -0.14163896 0.3619724 0.03093423 -0.035212666 -0.15720291 0.20540956 -0.029744582 0.34855688 -0.41821536 -0.26346973 0.65405405 0.25801408 0.23973902 -0.3710159 0.4204957 0.48698846 0.08957362 -0.1068843 -0.17352349 0.24064082 0.13834739 0.55559796 -0.0071111755 0.10626906 0.19914132 -0.08152632 0.12655209 -0.14634599 -0.12425345 0.1314565 -0.5414434 -0.3674707 0.28050524 0.7136482 -0.3958267 -0.107097276 -0.77501523 0.19932748 0.34130195 0.13923647 -0.073838525 -0.077687584 0.26088226 -0.060836542 -0.2892163 -0.16661929 0.052950647 -0.041514345 0.14360912 -0.016408104 -0.26203775 -0.073411316 0.07936491 -0.3060689 0.030747797 0.42592573 0.022394706 0.04914241 0.014734845 -0.018876178 0.22004038 0.0036511421 -0.085691124 -0.018960498 -0.30310333 -0.56220675 -0.63941354 0.033805385 0.20851806 0.3913453 0.05416363 -0.22840796 0.2768474 -0.016116789 0.24997008 -0.020523129 -0.3079337 0.09416051 -0.32905582 -0.5113227 0.15487266 -0.46808147 0.2891211 0.1564088 0.26392204 0.083741575 -0.19873151 -0.25150463 -0.6525524 0.1220528 0.013601511 0.3119389 -0.06818739 0.21052603 -0.0059911828 -0.50079906 -0.09896651 -0.037495147 0.31482914 -0.7576592 -0.43389717 0.12383589 -0.072779775 -0.08987217 -0.5800915 0.021448515 -0.22103132 -0.046946462 0.07525379 -0.021491593 0.060753915 0.1074139 -0.037794318 -0.40627503 -0.036762312 -0.09991511 0.12751918 -0.03695274 -0.7058079 0.37510172 -0.41445044 -0.05697214 0.102807686 -0.1299024 0.14380868 0.091818444 0.072977126 -0.1376182 -0.13499282 -0.20025243 0.13301708 -0.5648306 -0.13311598 0.17998692 -0.03132918 0.48152503 0.10467805 0.08994247 0.35748553 -0.06187818 0.061007056 0.48921162 0.3151438 -0.59863186 -0.22719692 -0.2909908 -0.42031658 -0.19577041 0.0425233 -0.053295247 -0.0018872268 0.24063018 0.1667891 -0.36631587 0.36286247 -0.09467946 -0.08872499 0.5128086 0.35482255 0.4582496 0.460442 0.25145474 -0.10177092 0.22775103 -0.21261643 0.1621853 0.8500949 0.053388216 0.24520427 -0.19474204 -0.46514878 -0.41050848 -0.25866476 -0.8231418 0.104822285 0.1804657 -0.57789284 -0.663429 -0.011058273 -0.042394344 -0.202206 0.25526112 0.23733723 0.1845138 -0.2921946 0.35737765 -0.42573565 1.1679046 -0.38890174 -0.8903431 0.14740625 -0.9314854 0.07675951 0.027549958 -0.0050384044 0.030062485 0.43607244 -0.28488633
Compound::DB00680 -0.15991306 -0.3655207 0.07337275 0.3169042 -0.1117146 -0.19967236 -0.30755067 -0.05595422 0.35676602 -0.09044179 -0.08593382 0.043811202 0.78018355 0.057235543 -0.041556716 -0.20288043 0.3019869 0.1408672 -0.42330477 0.043703545 0.0012718481 0.024299825 -0.21467116 0.2875987 0.24321713 0.12022981 0.11188673 -0.05781965 0.19439417 -0.17428012 0.2214074 -0.12640482 -0.018258505 -0.28567597 0.13728814 0.25441566 -0.5623123 0.043161046 -0.49982893 0.3233942 0.21771857 0.19134535 0.1577681 0.07935221 0.32181177 -0.31211817 -0.3040717 0.039587256 0.13064118 0.04727826 0.12812881 0.069083355 -0.19262587 0.28450128 0.0090474915 -0.103310436 -0.14685026 0.1851659 -0.23652479 0.07606469 -0.0787637 0.11044601 0.41898048 -0.04121753 -0.2344505 0.029373646 -0.28709322 -0.62111866 -0.20773476 0.36651734 0.30972925 0.34217587 0.0020874173 -0.13673706 0.3662028 0.15229884 0.3305023 -0.28550804 -0.20728195 -0.23128577 -0.3435452 -0.46528667 -0.16359016 -0.6378628 0.19739282 0.2264509 0.09180834 0.3756423 -0.31066084 -0.0075323693 -0.43902832 0.17921755 -0.16834517 0.20499197 -0.06413484 0.1060036 0.12462671 -0.40065768 0.13222483 -0.1707049 0.107499026 -0.36537057 -0.4155676 0.26330894 0.041463647 0.19443974 -0.5204478 0.020340007 -0.016742097 -0.053864732 -0.3051558 -0.22973658 -0.06670339 0.1052606 -0.2217056 -0.30765316 0.0959876 -0.057101224 -0.1054681 -0.35627353 -0.5484048 0.25897688 -0.20952234 0.0055420385 0.054195784 0.010244139 0.17252576 0.011113304 -0.12010114 -0.009658816 -0.52392066 -0.39463142 0.12674724 -0.84616154 -0.20278232 0.13443016 -0.20817085 0.3636512 0.2632313 0.48570302 0.24833632 -0.2685988 -0.05187691 0.1923966 0.36568967 -0.44477832 -0.17617452 -0.32433987 -0.44526199 -0.5098643 0.12162277 -0.019806039 0.13871224 -0.22789301 0.46182647 -0.18921371 0.350298 -0.06632773 0.0552054 0.4339627 0.73852795 0.38078082 0.38045087 0.15959845 0.022565605 0.21445851 -0.11970706 0.08627422 0.5655909 0.027575154 -0.13262422 -0.07375697 -0.4597324 -0.32702157 0.10046922 -0.5712213 0.17612207 -0.09589456 -0.6563543 -0.47435737 -0.2096584 -0.0006139018 -0.23430914 -0.09702317 0.22514829 0.2593096 -0.25035992 0.32142588 -0.322434 0.994234 -0.34682727 -0.43476892 -0.016189195 -0.53125954 -0.18159121 0.3079021 -0.22481886 -0.033166118 0.40132403 -0.24883115
Compound::DB00477 -0.043081813 -0.16403647 -0.14067484 0.25328615 -0.15629973 -0.43057784 -0.3545779 0.11512674 -0.043236926 0.15281294 -0.006602028 -0.11132993 0.7809805 0.19234689 0.16056192 -0.21592073 0.033367306 0.19456467 -0.2721748 -0.004471594 -0.035844687 0.10870452 -0.38941163 0.7084706 0.22682795 0.06412613 0.14717431 0.08677564 0.120912194 -0.27873904 -0.007964734 0.06713525 -0.23458318 -0.4315368 0.2852205 0.51527655 -0.17095745 0.044978615 -0.7276645 0.13296974 0.4665448 0.058112092 -0.023825007 -0.07374671 0.22337715 -0.21485217 -0.34834272 -0.15562029 0.09604567 0.04446433 0.16015325 0.26458773 -0.19894052 0.087817125 -0.052452818 -0.1781148 -0.0012683691 0.33469325 -0.034226827 -0.06952647 0.15702812 -0.03984328 0.28131792 -0.08894365 -0.10689367 -0.19030374 -0.46959642 -0.55943054 -0.40220693 0.28502828 0.17038825 0.47102016 0.061556727 -0.14676091 0.2779364 0.0034867257 0.2022973 -0.0093490435 -0.18699718 -0.1573197 -0.28656256 -0.22378813 -0.025350008 -0.4526956 0.043313455 0.3053011 0.28507486 0.13453202 -0.061946016 -0.20523715 -0.3940299 0.12901737 -0.18759656 0.21682046 -0.0488527 0.118789345 0.070652805 -0.19008063 -0.10573958 -0.18079096 0.35968438 -0.48988038 -0.22142953 0.2204234 -0.109311275 -0.12602577 -0.4449098 0.029535059 -0.05121267 -0.11379693 -0.07680854 -0.065728426 -0.038597006 0.13518658 -0.16893682 -0.4622847 0.012889011 -0.10117984 -0.15582299 -0.12294981 -0.5338512 0.2603402 -0.12727739 -0.11461765 0.08174158 -0.13889846 0.01651106 0.15101309 0.015068034 -0.16491435 -0.23397136 -0.27688897 0.073196694 -0.7729229 -0.20047049 0.2745359 0.2546142 0.3928322 0.23856342 0.17258197 0.32818726 -0.13102597 -0.028914178 0.113618255 0.46792883 -0.3362415 -0.18244793 -0.3236881 -0.25460356 -0.3225941 -0.0096548945 -0.13319924 0.13976298 0.014754109 0.11775872 -0.14465345 0.36409172 0.031459678 0.0063701854 0.35061172 0.47771686 0.36399403 0.47134525 0.2072814 -0.10696321 0.27533194 -0.22051822 0.22643024 0.76165843 -0.076804504 -0.010790174 -0.28635722 -0.1947524 -0.30594453 -0.09085451 -0.5638259 0.2864499 0.25102946 -0.43539473 -0.493589 -0.11553391 -0.050657984 -0.0786692 0.08570452 0.28241423 0.2311908 -0.17576626 0.27854997 -0.2076091 1.0322543 -0.2390542 -0.5264462 0.11484116 -0.6288887 -0.28165475 -0.07743991 -0.31666407 0.1365787 0.34276295 -0.27027598
Compound::DB01234 -0.13502792 -0.032071248 0.036182355 0.31023508 0.013425484 -0.45730984 -0.058907382 0.28095666 0.10700711 0.04618667 -0.09293566 -0.15077688 0.7243145 -0.17505284 -0.03947277 -0.10025558 0.16453 0.17751105 0.045456436 -0.5182175 -0.020367844 0.036420587 -0.43754533 0.47203186 -0.25396946 -0.14027208 0.22279269 -0.26112488 0.17080164 -0.16468571 -0.15669729 0.27868956 -0.041176382 -0.6053339 0.33366084 0.2563931 -0.10139798 0.2712933 -0.40180176 0.18439619 0.26702148 0.28595564 -0.10420841 0.469681 0.3391789 -0.13411485 -0.24782203 -0.079086676 0.14136449 0.033109084 -0.14873248 0.45116284 -0.024314603 0.061082713 0.3189051 -0.23981602 -0.07751457 0.27876955 -0.0729458 -0.09699937 0.08351123 0.18661875 0.23608233 -0.026205113 -0.0062059024 -0.2511151 0.06814193 -0.45600626 -0.44958785 0.33580303 0.15676048 0.24957924 -0.0014094725 -0.23695467 0.109656446 -0.04316595 -0.00060433836 -0.0059490986 -0.36256102 -0.2957513 -0.11867837 -0.39976817 -0.041187257 -0.22982982 0.034798 0.16544154 0.004395856 0.20774956 0.028670227 -0.0399063 -0.29355392 0.23079741 -0.08968095 0.026682083 0.065112226 0.35615715 -0.08455863 -0.30615854 0.01748581 -0.1687783 -0.046930943 -0.1531106 -0.10554737 0.28777725 -0.030291233 -0.06459816 -0.22962299 0.07376147 0.046838425 -0.1586794 -0.008166423 0.0953927 0.1737498 -0.012530106 -0.16117631 -0.074976295 -0.19619171 0.03835513 0.18298335 -0.37534893 -0.28388256 0.08836096 -0.19109452 -0.22624461 -0.057120994 -0.012251504 0.20662643 0.05799904 0.035152096 -0.094983846 0.083575554 -0.085278764 0.14836808 -0.34690475 0.15862565 0.20589116 0.23100953 0.24906634 0.2063875 -0.04871092 0.26822457 -0.06849761 -0.09476363 0.10479109 0.06721438 -0.03082395 0.010405886 -0.3048751 -0.47794545 -0.1595191 0.056686267 -0.31342578 0.3430768 -0.004031292 0.04017463 -0.30658883 0.3008748 -0.22825582 -0.11659034 0.50949585 0.40981022 0.3776216 0.35180506 0.1558841 -0.12408781 0.20972255 -0.13671528 -0.061779942 0.31699264 -0.05880361 0.068009906 -0.21767521 -0.34702018 -0.14952937 0.36694497 -0.27202362 0.077948675 0.06911626 -0.20035677 0.108537614 0.025815109 -0.12873308 -0.03481722 0.073448084 0.14596274 0.14062883 -0.09008018 0.13790947 0.0131248245 0.5858277 0.019879673 -0.24914879 -0.016763337 -0.2764306 -0.051896475 -0.041324027 -0.22200936 0.15841965 0.028119465 -0.23787476
Compound::DB01013 -0.13540415 0.08908287 0.33883148 0.07889634 -0.27406392 -0.39558235 -0.02453569 0.2876975 0.4210122 0.10280233 -0.36958253 -0.09442835 1.0243042 -0.073148005 -0.0066171424 0.06362463 0.26322854 0.3372011 0.03073293 -0.62877554 0.07750176 0.15499572 -0.37369418 0.7832454 -0.23156092 -0.20524266 0.23021197 -0.10973635 0.058322772 -0.17569076 -0.13131933 0.605289 -0.09714219 -0.5253695 0.5759078 0.36255732 -0.07984723 0.42184716 -0.3803904 0.21243379 0.27061102 0.15984201 -0.31280357 0.29400495 -0.07739348 -0.15277144 0.039507464 -0.103684485 0.13178875 0.33239588 -0.30208546 0.3618012 0.05083406 0.14877158 -0.027559757 -0.10631549 -0.15034266 0.031053578 0.041203972 -0.13026565 0.22649176 0.12476126 0.33990815 0.07471045 -0.15002017 -0.08763696 0.069842465 -0.641888 -0.52031356 0.25859272 0.016104441 0.1986351 -0.054204874 -0.29295054 0.084267855 0.2096322 0.0029788136 0.05496112 -0.3186971 -0.26283136 -0.13081518 -0.45126328 -0.17578852 -0.43765798 0.1802206 0.12784413 0.09972319 0.2168303 0.0054444727 -0.23987904 -0.25437585 0.32225156 -0.04712376 0.26382613 0.013589858 0.6494706 -0.15373076 -0.29460058 -0.15182275 -0.18067044 0.3618077 -0.31128702 -0.18624797 0.5082261 0.05315972 -0.09176279 -0.36660329 0.07064561 0.00857199 -0.28570265 0.17762616 0.0073990896 0.3500564 -0.2780815 0.16365026 -0.14104119 -0.22870256 -0.113715075 0.4387147 -0.27408895 -0.5881796 0.20712787 -0.12721571 -0.19606064 0.24219982 0.034609083 0.13256028 0.11291267 -0.108927965 0.18448037 0.094983995 0.26865703 0.3685801 -0.24498624 0.19831961 0.38481113 0.41061062 0.5784339 -0.19108382 0.0026457892 0.32744655 -0.09932619 0.017655868 0.13309744 0.12098985 -0.03672222 -0.17434411 -0.35405788 -0.6182956 -0.027968187 -0.11749632 -0.11049346 0.2357529 -0.1981486 0.020001855 -0.36093253 0.35214424 -0.5053482 -0.5985609 0.4857032 0.53733015 0.52138495 0.24820708 0.45023093 -0.11017114 0.3865167 -0.18108296 0.12341089 0.10070487 -0.33498284 0.06442075 -0.20349523 -0.7154266 -0.0860999 0.47806007 -0.83232194 -0.05215307 -0.05883694 -0.5050062 0.0026276757 0.13590276 -0.22794993 -0.15294997 -0.20511024 0.28767142 0.0500545 -0.30232036 -0.14816321 0.12815578 1.121797 -0.17599496 -0.55749506 0.07353964 -0.442919 -0.03506831 0.1410388 -0.16006532 0.3001107 0.3474392 -0.33334982
Compound::DB00812 -0.29838488 -0.17903481 -0.19785054 0.11640897 0.1306307 -0.2846003 -0.06963969 0.043992914 0.2979648 0.1725996 -0.25906083 0.1885009 0.76503974 -0.45474184 -0.09525392 -0.5978053 0.14351365 0.056868292 -0.2040126 -0.40681377 -0.18724805 -0.03944159 -0.2550096 0.66619116 0.05538534 -0.20081231 0.11636704 -0.122639656 -0.009426066 -0.22114596 0.03517493 -0.065052 -0.36065105 -0.46898472 0.11153059 0.3089952 -0.050700933 0.14746976 -0.47860304 0.39751497 0.53918123 0.20345299 0.24921986 -0.038969878 0.29158497 -0.3278397 -0.08870746 -0.23342101 0.25705525 -0.03222252 0.03518781 0.058676094 -0.013831733 0.3648391 -0.25858966 -0.0931981 -0.12358935 0.1572378 0.20122842 0.033265203 -0.009489116 0.10455817 0.37196654 -0.27126914 -0.07190431 -0.14882334 -0.20328999 -0.11086311 -0.510883 0.07891786 0.15435472 0.1712546 0.101288274 -0.286641 0.29357624 0.1128057 0.12620454 0.0021032367 -0.17391856 -0.27513814 -0.5034698 -0.39032447 -0.35475618 -0.39828855 0.09647719 0.12173313 0.29784977 0.30921334 -0.071660474 -0.1861811 -0.632143 0.07000422 -0.12703876 0.014731953 -0.12226481 0.22618023 -0.059149068 -0.074040495 0.061731275 -0.41450125 0.1211708 -0.26099902 -0.53215784 0.437619 -0.0016069759 0.03532432 -0.4656928 -0.15541802 -0.20814276 -0.30114985 -0.43014514 0.03344907 0.11391068 -0.0015416872 -0.08589911 -0.5016784 -0.11749471 -0.014092237 -0.08186042 -0.39543638 -0.57508636 0.41511098 -0.11898235 0.03306354 0.10628611 0.025059544 0.30593923 -0.0030759284 -0.21940766 -0.09813804 -0.32886925 -0.20774363 -0.17047407 -0.9433524 -0.12351741 0.07931474 -0.17935619 0.2487291 0.19477828 0.2161552 0.10872965 -0.13398965 0.20641954 0.21790154 0.2514199 -0.18766506 -0.21851769 -0.44237307 -0.5463525 -0.2030641 0.1756509 -0.03475196 0.21746805 -0.11474733 0.3182773 -0.2785517 0.35264903 -0.337872 0.3046406 0.62150604 0.64176816 0.1998855 0.35082915 -0.2440811 -0.46324793 -0.052919585 -0.36856794 -0.053296033 0.44976914 -0.1499553 -0.1155761 -0.056814887 -0.25811538 -0.19504756 -0.1314377 -0.5555109 -0.065215096 -0.09991653 -0.32093307 -0.17665611 -0.090106316 -0.050380744 -0.3134158 -0.15891933 0.26013064 0.4307353 0.018017057 0.1815886 -0.19053227 0.61658037 -0.199499 -0.28753814 0.1223855 -0.6612039 0.050456874 0.090245 -0.01985751 -0.07988734 0.10020796 -0.37281144
Compound::DB01320 0.07182855 -0.36624396 -0.30029178 0.19651157 0.04692661 0.039875858 0.011360682 0.028028546 0.13834965 -0.14526628 -0.23718731 -0.031529736 0.45310974 -0.2682889 -0.051641632 -0.34401762 0.22581455 0.14080355 0.119487986 -0.34682724 -0.21269995 -0.13251266 -0.31952325 0.7470737 -0.33216515 -0.24246086 0.11039107 -0.12470229 0.11112875 0.03218811 -0.32827625 0.25285673 -0.33130655 -0.4057264 0.5273675 0.061135318 -0.13314651 -0.0033526602 -0.51081085 0.31657523 0.6556553 0.33772245 0.042638425 0.36573493 0.4580793 0.022744102 0.058518767 -0.53604436 0.019181143 -0.3019011 0.019791981 0.41133764 -0.11171639 0.005170012 0.1664521 -0.23492888 0.10195925 -0.10424914 0.3025048 0.03544041 -0.3865837 0.05834669 0.43067077 0.14560814 0.065074325 -0.095483415 -0.16382167 -0.23738122 -0.68041307 0.35151812 -0.1981614 0.41095328 -0.11652686 -0.26508358 0.34261823 0.09485845 0.2224267 0.04207237 -0.10909359 0.0016675172 -0.463699 -0.41490808 0.012032874 -0.10109643 0.15857713 0.55017716 0.19894838 -0.012434955 0.051656675 -0.46295255 -0.7138241 0.2891916 -0.33083826 0.35082412 -0.2628672 0.30697086 -0.053757913 -0.30807236 0.019369945 -0.14814605 0.146682 -0.45361042 -0.2106233 0.29794195 0.0031774195 -0.20601022 -0.48856845 -0.12513986 -0.2341247 -0.14939521 0.1437309 0.25852564 0.11429922 -0.27623346 -0.057586916 -0.15414782 -0.27295917 0.05175237 0.26302242 -0.26699898 -0.50828916 0.3953826 -0.14181848 -0.007933858 0.11783627 0.13134179 0.021764632 0.0749827 0.041209947 0.0736699 0.06866249 0.060716413 0.027244575 -0.5726506 0.13556209 0.00012224796 0.09484188 0.1770567 0.07752958 -0.090228826 -0.08971549 -0.15628918 0.24668711 0.40213066 -0.023125555 -0.2056334 -0.016743032 -0.15992759 -0.36247125 -0.19072266 0.07613485 -0.06299174 0.053667955 0.29217255 -0.09962924 -0.090123124 0.19226313 -0.3676209 -0.06718268 0.22104321 0.2262876 0.22635677 0.008696433 0.07271917 -0.093040854 0.14422832 -0.3021659 0.3520015 0.27858666 -0.045729015 0.0056958515 -0.39336842 -0.5332212 0.04555549 -0.031965315 -0.52933323 0.063607045 0.15485133 -0.22338788 -0.26765308 -0.19298078 -0.28833094 -0.16342151 -0.105441235 0.46624038 -0.107242584 -0.089329876 0.040355034 0.09357472 0.7244641 -0.23311701 -0.5998093 0.16500768 -0.6240281 0.096335985 -0.17687927 0.05637378 0.0881362 0.39168864 -0.13958317
Compound::DB00333 0.0039893794 -0.5114227 -0.18814443 0.31036296 0.016079921 -0.005368631 -0.028541211 0.1588353 0.15242615 -0.11017338 -0.12108025 -0.108144745 0.4906398 -0.2104818 -0.10835416 -0.4257107 0.12610568 0.10333494 -0.06657655 -0.29761693 -0.25979435 -0.048072785 -0.17265876 0.74727845 -0.108031906 -0.17348439 -0.044659086 -0.08577781 0.2799659 0.06406404 0.05829105 0.028899204 -0.2661365 -0.28935376 0.22061804 0.33438608 -0.21553017 -0.017216742 -0.59792674 0.30496708 0.6663192 0.28656536 0.11793511 0.12984134 0.28636003 -0.18157981 -0.12866409 -0.2663392 0.18020487 -0.02995407 0.12859714 0.08668033 -0.22507077 0.064712554 -0.004248011 -0.08132937 0.029200999 0.04349218 0.20023115 0.022657935 -0.18790542 0.110137984 0.30330068 0.03492731 -0.07867837 -0.102312304 -0.2614243 -0.14959313 -0.48927465 -0.013013541 0.017859414 0.26333633 -0.042215817 -0.30618128 0.25665402 0.07414126 0.19557527 -0.00056003843 -0.07146978 -0.10733078 -0.36329877 -0.43580496 -0.10278509 -0.3690296 0.28020546 0.24360766 0.25665534 0.22843054 -0.055567674 -0.26387635 -0.6587755 0.25957763 -0.25983834 0.3308681 -0.23005334 0.29806438 0.032201145 -0.18176806 0.027279638 -0.12683994 0.13136424 -0.5147014 -0.29979655 0.31174552 0.20240173 -0.079500645 -0.5187679 -0.23235285 -0.23280892 -0.23063312 -0.084594615 -0.0134833865 0.0011844941 -0.21656863 -0.11868152 -0.45505974 -0.2088766 -0.016224071 0.23004524 -0.19972354 -0.49781886 0.34859338 -0.17670809 -0.020222709 0.06708375 0.062331 0.19193338 0.0030382662 -0.034345377 0.012924722 -0.09209057 -0.27862728 0.004227745 -0.8305011 -0.065715864 -0.01820083 -0.106756136 0.25344473 0.025039962 0.1312769 0.028156023 -0.15913472 0.15834412 0.40968868 0.13288121 -0.31412795 -0.1909791 -0.25776753 -0.43640372 -0.10227588 0.120316945 0.066591784 0.05527778 0.17560609 0.1398975 -0.13819157 0.26924857 -0.40211543 0.004178858 0.521166 0.44655538 0.32959807 0.2071022 -0.0076513933 -0.14426972 0.1530212 -0.29086512 0.18382636 0.56056345 -0.027472937 -0.08941578 -0.19091956 -0.48686245 -0.06830735 -0.025737273 -0.5747159 0.022213407 0.034665562 -0.40804282 -0.43271935 -0.088751525 -0.15061349 -0.32214385 -0.15133108 0.35066676 0.23936641 -0.19359753 0.08082431 -0.023370989 0.7989021 -0.21874739 -0.5662047 0.11319319 -0.7346892 0.11628801 0.08806587 0.042165376 0.12591952 0.4184546 -0.3358899
Compound::DB00950 -0.11890273 -0.3394008 -0.26490533 0.3395798 0.11638211 -0.2068483 -0.016544193 0.11810327 0.20606627 -0.042129047 -0.09295327 -0.2623228 0.77611345 -0.35753787 -0.25064424 -0.4971414 0.18188769 0.27129373 -0.0052237352 -0.31895617 -0.34238237 0.06183037 -0.28361994 0.9852524 0.05245422 -0.43763086 -0.19021514 -0.09814943 0.20331155 -0.15038094 0.029418278 0.110463135 -0.32570848 -0.6006733 0.09797499 0.32416552 -0.15291081 -0.14549232 -0.7026123 0.22046793 0.49419653 0.23638009 -0.019245578 0.21715406 0.11175401 -0.2331243 -0.17423338 -0.29506534 0.039241925 0.07653281 0.12332438 0.22246607 -0.17741401 0.23680246 -0.13909926 -0.09680097 -0.032750756 0.19576111 0.10334447 0.123527765 0.2734574 -0.031862196 0.27249444 -0.08569643 -0.02392879 -0.28949165 -0.20810764 -0.5846803 -0.67456764 -0.09611199 0.20530577 0.28136522 -0.00049554044 -0.28536364 0.23310676 0.14257424 0.22256154 0.036810108 0.031022953 -0.13208584 -0.3340142 -0.4311126 -0.039574545 -0.2506997 0.3294121 0.2475805 0.34806725 0.11537777 -0.067604214 -0.30146712 -0.47120413 0.31313008 -0.27272406 0.4788358 -0.08845373 0.35449022 0.099480614 -0.18949862 0.09391828 -0.23093063 0.36580175 -0.67767197 -0.25294846 0.33412802 0.13885418 -0.160089 -0.41696113 -0.15407172 -0.15665106 -0.18996103 -0.03002972 0.096842125 0.18067677 -0.10009161 -0.033745714 -0.40771157 -0.25332415 0.019384261 0.21094146 -0.19991031 -0.50949526 0.19526015 -0.060359474 0.005350887 0.12928976 -0.0062019564 0.2315367 0.050708536 -0.028914005 0.06961536 -0.055124603 0.043353796 0.09346375 -0.5899527 -0.1318882 0.20751952 0.18537584 0.4513736 0.022452429 0.17572114 0.053381678 -0.03557181 0.15583433 0.49879852 0.2770565 -0.34892407 -0.22981468 -0.1972711 -0.22483258 -0.1028793 -0.063448474 0.10349095 -0.02320867 0.10581469 -0.088403374 -0.08750663 0.29551762 -0.33732378 -0.15068194 0.4759027 0.38949907 0.40034992 0.3228578 0.05316652 -0.087480694 0.2003436 -0.16423 0.16880889 0.320071 -0.0966137 0.026900051 -0.14264777 -0.48427594 -0.19271041 0.028410511 -0.4604051 0.17747661 0.16868599 -0.48575103 -0.2651758 -0.02366573 -0.047551416 -0.15905397 -0.1047823 0.37402782 0.14181736 -0.1189563 0.07598995 0.11156052 0.85166025 -0.20614795 -0.7191048 0.18639237 -0.6631832 -0.021423517 0.08855767 0.09951903 0.12476411 0.34245142 -0.37384152
Compound::DB00860 -0.120836146 -0.09513854 0.121322125 0.3241236 -0.05801631 -0.26038736 -0.12804136 0.2169576 0.43658608 0.17966866 -0.4461024 -0.10976477 0.6430168 -0.2670174 0.05589268 -0.09315696 0.30606592 0.14621848 0.018376676 -0.4218099 0.02072399 0.060613513 -0.43658453 0.8238245 -0.44685552 -0.19993582 0.28119728 -0.113798976 0.12905431 -0.065662034 -0.23228298 0.3279596 -0.26593345 -0.4260335 0.7432907 0.14795771 -0.11411518 0.21076226 -0.25981992 0.26184872 0.3776571 0.14754379 -0.13446938 0.6380704 0.2944293 -0.20862244 0.01838074 -0.36139238 0.0118389 0.14630687 -0.1390117 0.5569963 0.1847268 0.24829833 0.167708 -0.12853023 -0.121309996 0.018172331 0.111683115 0.07641168 -0.09656347 0.0548042 0.24875012 0.048074175 -0.22272092 -0.1836231 0.012819276 -0.5095297 -0.52265084 0.20748676 0.08937651 0.16883267 -0.068927504 -0.10364593 0.2817371 0.17411706 0.03060688 0.043551605 -0.33339593 -0.286353 -0.39347875 -0.44573522 0.15919368 -0.29628024 0.3763425 0.3536354 0.07810717 0.13220567 0.15498745 -0.106874175 -0.4904084 0.15049858 -0.010442315 0.031595837 0.05127702 0.5490952 -0.10307987 -0.46959257 -0.08122104 -0.182866 0.11502368 -0.31120855 -0.39446077 0.5237461 0.22349617 -0.23354581 -0.57115203 -0.15124647 -0.09889216 -0.31575343 0.10690442 0.082145385 0.39751944 -0.0836705 -0.14867891 -0.0948918 -0.2248391 0.15568644 0.15058246 -0.5080682 -0.41266766 0.28289753 -0.13433753 -0.20003654 0.058070414 0.04663511 0.04478419 0.25536692 0.19910783 0.09124323 0.07432092 0.012738129 0.16362135 -0.30341575 -0.082220554 0.1939695 0.22371213 0.1910028 0.08470202 0.055717155 0.42746562 -0.22531563 0.089005284 0.1919692 -0.027682934 -0.09884411 0.007055882 -0.38768578 -0.71853167 -0.24891381 -0.023270115 -0.41322026 0.39204648 -0.10258374 -0.12800762 -0.43179387 0.4335528 -0.5676586 -0.18239272 0.30151758 0.44691116 0.38172102 0.34141168 0.22448963 -0.14931364 0.474588 -0.27345708 0.18173364 0.22083284 -0.24768868 0.101457134 -0.38735586 -0.6676853 -0.17094283 0.3178769 -0.6388224 0.040983967 0.017802136 -0.4860118 -0.03538245 -0.02970865 -0.36380216 0.022776337 -0.16395809 0.16534679 0.059483018 -0.24725993 0.033930108 -0.045397624 1.1874887 -0.2896639 -0.50864697 0.16999099 -0.35777614 -0.068030484 -0.13882154 -0.15211633 0.16497096 0.24695812 -0.10407457
